%YAML:1.0
---
opencv_ml_svm:
   format: 3
   svmType: C_SVC
   kernel:
      type: LINEAR
   C: 2.6699999999999999e+00
   term_criteria: { epsilon:1.1920928955078125e-07, iterations:1000 }
   var_count: 3780
   class_count: 2
   class_labels: !!opencv-matrix
      rows: 2
      cols: 1
      dt: i
      data: [ -1, 1 ]
   sv_total: 1
   support_vectors:
      - [ 0., 0., 0., 0., 0., 0., 0., 0., 0., 0., 0., 0., 0., 0., 0., 0.,
          0., 0., 0., 0., 0., 0., 0., 0., 0., 0., 0., 0., 0., 0., 0., 0.,
          0., 0., 0., 0., 2.37996879e-04, 6.75614865e-05, 1.35310853e-04,
          9.58067249e-05, -1.82457129e-03, -2.06295554e-05,
          1.34727801e-04, 1.70197512e-04, 6.01867905e-05, 3.73783242e-03,
          1.47284975e-03, 4.66057612e-03, 8.25211033e-03,
          -6.50646351e-03, 1.37159936e-02, 1.64506920e-02,
          5.90325147e-03, 1.71818119e-03, 8.61520766e-06, 1.35410854e-04,
          2.77598650e-04, 1.37706200e-04, -2.91147805e-03,
          1.59784468e-04, 5.06439770e-04, 5.39222056e-05, 0.,
          3.54311639e-03, 3.67501099e-03, 7.26187043e-03, 6.92818128e-03,
          -6.50646351e-03, 1.40513936e-02, 1.88115947e-02,
          8.05780198e-03, 4.16324660e-03, 7.67525111e-04,
          -3.37763980e-04, 3.27505427e-03, 4.56927018e-03,
          -9.95956361e-03, 8.26771278e-03, 1.19571546e-02,
          4.10412950e-03, 8.14113184e-04, -1.53222596e-02,
          -1.36773568e-03, 1.68821774e-03, 1.23425592e-02,
          3.77203375e-02, 2.01950278e-02, 1.83370542e-02, 1.07736886e-02,
          -2.79732340e-04, 1.31252129e-03, 7.56919209e-04,
          6.11520140e-03, 2.30469345e-03, -1.01924604e-02,
          8.16888083e-03, 1.13166943e-02, 5.31458529e-03, 2.40063993e-03,
          1.22076494e-03, 3.20183230e-03, -1.42363296e-03,
          7.41958292e-03, 3.54666039e-02, 1.63599439e-02, 9.53405537e-03,
          1.11695137e-02, 9.59741883e-03, -2.32953206e-03,
          8.01184587e-03, 4.66864463e-03, 6.65741216e-04,
          -2.25616377e-02, 9.68586374e-03, 1.34358471e-02,
          3.05837533e-03, -2.71820510e-03, -1.57907791e-02,
          1.95154303e-03, 5.53330034e-03, -2.12429627e-03,
          1.27757923e-03, 4.29643318e-03, 8.33528396e-03, 4.31872578e-03,
          -9.47062392e-03, 2.98085064e-03, 2.79015512e-03,
          2.55278777e-03, -2.74543068e-03, -1.81171224e-02,
          6.61683735e-03, 5.40600251e-03, 4.52077761e-03,
          -6.23771176e-03, 4.99108247e-03, -1.85948494e-03,
          1.60034560e-02, -4.10307525e-03, 4.65119164e-03,
          -3.09120573e-04, 5.62776159e-03, 3.69886192e-03,
          -7.32030114e-03, -1.29463281e-02, 1.85178511e-03,
          1.05312644e-02, 1.29857175e-02, 6.61030924e-03, 1.53948981e-02,
          8.30645394e-03, 6.41197292e-03, 9.47958697e-03,
          -8.25823378e-03, -1.72062125e-02, -1.98514704e-02,
          4.48034843e-03, 2.52658911e-02, 2.80355662e-02, 1.48971630e-02,
          -6.35727891e-04, 1.40194641e-03, 8.37726612e-03,
          -8.65662657e-03, 2.61989818e-03, 7.87798222e-03,
          7.08743697e-03, -6.70866721e-05, 6.38389727e-03,
          -2.20846850e-03, 2.37678760e-03, 7.36282486e-03,
          -3.24509144e-02, -1.91654190e-02, -6.01249747e-03,
          8.59175809e-03, 8.92004836e-03, 1.42538231e-02,
          -2.06205645e-03, 9.79654584e-03, -2.61176541e-03,
          -2.68483516e-02, -2.86922362e-02, 3.52895306e-03,
          1.47510087e-02, 2.82902718e-02, 1.60363074e-02, 2.91721756e-03,
          1.12506542e-02, -3.15830321e-03, -3.98213826e-02,
          -2.85061635e-02, -7.34635862e-03, 1.61384847e-02,
          1.81867704e-02, 1.89348608e-02, 5.09230979e-03, 1.43255368e-02,
          1.18857427e-02, -2.28936877e-02, -1.81129426e-02,
          -2.18751305e-03, 1.98287200e-02, 2.41561625e-02,
          2.13168152e-02, 6.04501320e-03, 2.06572153e-02, 1.03060650e-02,
          -2.05032006e-02, -2.61136871e-02, -4.91575710e-03,
          1.46111222e-02, 1.84266735e-02, 2.56183650e-02, 4.39004693e-03,
          5.93137043e-03, -1.31056886e-02, -2.75184456e-02,
          -1.95634700e-02, -1.26936473e-02, 2.27831975e-02,
          1.37511995e-02, 1.44758942e-02, 6.20234990e-03, 3.09479958e-03,
          -1.37206521e-02, -2.90829856e-02, -2.37627886e-02,
          2.77959812e-03, 3.05065569e-02, 2.24774498e-02, 2.52240449e-02,
          -8.96584941e-04, -1.37477517e-02, 5.42035187e-03,
          -1.88116473e-03, -1.34689258e-02, 1.15871681e-02,
          1.18146529e-02, 9.71401483e-03, 1.55724222e-02, 1.36890095e-02,
          -6.04079745e-04, -1.00003248e-02, -1.30482521e-02,
          -9.92576871e-03, 1.65561624e-02, 9.51125566e-03,
          2.22959854e-02, 3.04626804e-02, 1.85682904e-02,
          -2.86569557e-04, -2.08725911e-02, -2.50749849e-02,
          -3.83093138e-03, 1.23424064e-02, 2.44655926e-02,
          2.54586842e-02, 2.06515677e-02, -1.33654261e-02,
          -2.09125970e-02, -3.58856516e-03, -2.26257220e-02,
          -4.37412364e-03, 6.04336336e-03, 1.42710954e-02,
          1.19513515e-02, -1.19824205e-02, -1.96991079e-02,
          -2.19720397e-02, -2.07059216e-02, -1.67130604e-02,
          -3.81542253e-03, 1.13609564e-02, 6.51979214e-03,
          2.74406578e-02, 2.89294478e-02, 9.03298892e-03,
          -1.25002917e-02, -9.50015709e-03, -8.33028369e-03,
          -4.15238226e-03, 9.00511537e-03, 3.80888305e-05,
          2.14028154e-02, 7.19235791e-03, 5.76331560e-03,
          -4.20493679e-03, -6.46738568e-03, -1.29133109e-02,
          -1.70556437e-02, -1.09496675e-02, 4.64969175e-03,
          -5.60649089e-04, -1.74227133e-02, -8.81720707e-03,
          -1.95356198e-02, -1.51955208e-03, 9.38175595e-04,
          -1.78848777e-03, 9.65655036e-03, 2.42866389e-03,
          6.72007911e-03, -1.95365343e-02, -7.47009506e-03,
          -1.46109834e-02, 7.61430059e-03, 9.14241746e-03,
          -7.54819671e-03, -3.13379825e-03, 1.18936412e-02,
          1.47357211e-02, -4.89641493e-03, -1.03741291e-03,
          -3.00711207e-03, 1.05488095e-02, 1.95186399e-02,
          1.09011652e-02, 1.28166275e-02, 1.79321729e-02, 2.12608324e-03,
          -2.65722703e-02, -1.93625279e-02, 6.10450562e-03,
          -6.37181289e-03, 3.79858795e-03, 9.13761090e-03,
          1.78249609e-02, 9.74142551e-03, -1.41519573e-04,
          -3.46734412e-02, -1.50099378e-02, 7.51807448e-03,
          4.60829586e-03, -5.48306247e-03, 1.79594569e-02,
          1.99244507e-02, 2.48950254e-02, 5.24361618e-03,
          -1.89524461e-02, -3.96115147e-03, 1.75254568e-02,
          5.35268616e-03, 1.63962543e-02, 1.04274992e-02, 1.56753641e-02,
          7.74143171e-03, -1.72658116e-02, -3.39913443e-02,
          -3.55876274e-02, 2.28324975e-03, 2.04044748e-02,
          2.78654322e-03, 1.23760905e-02, -5.40212495e-04,
          1.60070024e-02, -1.26843564e-02, -3.80741954e-02,
          -2.98839565e-02, 1.32329632e-02, 1.00655835e-02,
          9.46943823e-04, 2.27104239e-02, 2.02915464e-02, 2.75074914e-02,
          -1.31685473e-03, -2.53131203e-02, -1.79419741e-02,
          -5.58766071e-03, -5.02434606e-03, 3.92880756e-03,
          2.42101327e-02, 7.43793743e-03, 2.36255452e-02, 3.45026469e-03,
          -5.00731962e-03, -1.12766353e-02, -1.91228092e-02,
          2.21714489e-02, 7.74092320e-03, 9.88171902e-03, 6.41868589e-03,
          1.64686404e-02, -2.16247234e-02, -4.94114235e-02,
          -3.14218923e-02, 1.83911354e-03, 1.60790700e-02,
          1.68501604e-02, 1.56769063e-02, 1.78363873e-03, 1.82693489e-02,
          -1.60906594e-02, -3.83221656e-02, -2.63348669e-02,
          -6.31079747e-05, -6.61466597e-03, 7.29897479e-03,
          1.24653094e-02, -2.00867578e-02, 2.29429733e-02,
          -1.40981097e-02, 4.40807035e-03, -1.01638092e-02,
          -2.06240211e-02, 6.12514094e-03, 7.25885900e-03,
          5.95456548e-03, -6.78299647e-03, -2.22199485e-02,
          -7.84162432e-03, 5.28122648e-04, -2.91594281e-03,
          6.49097795e-03, 6.81569334e-03, 1.26816779e-02, 1.53594837e-02,
          -2.21287310e-02, 9.44525655e-03, -2.05242783e-02,
          -2.65498403e-02, -2.23176312e-02, -7.02670729e-03,
          3.34742130e-03, 1.12613710e-02, 2.49907933e-03,
          -1.72051962e-03, -1.51764946e-02, -1.22477971e-02,
          -4.80921653e-06, -5.16635878e-03, 6.59840240e-04,
          1.43114477e-03, 9.56550986e-03, 3.84013681e-03, 1.05720945e-03,
          1.90605111e-02, 1.16479141e-05, 9.02924594e-03, 8.73158313e-03,
          6.70923525e-03, 2.06022034e-03, 8.03880219e-04, 5.51179191e-03,
          5.93438651e-03, -7.98240025e-03, 2.25646701e-03,
          2.69205705e-03, 2.58307741e-03, 2.82637263e-03, 1.13580143e-04,
          2.19863113e-02, 4.12915135e-03, 1.52384182e-02, 2.33175401e-02,
          1.50347489e-03, 1.54908458e-02, 9.52336751e-03, 1.56993035e-03,
          2.44666240e-04, 4.08944394e-03, 8.30486231e-03, 1.04461629e-02,
          -7.92224333e-03, 7.13946018e-03, 5.33777010e-03,
          2.88450927e-03, 2.24942900e-03, 3.31781548e-03, 8.73907353e-04,
          5.97754121e-03, 8.54372233e-03, 8.48871772e-04, 7.98186287e-03,
          1.50576269e-03, 3.75418807e-03, 2.42403941e-03, 0., 0., 0.,
          -3.36636258e-05, -3.20618809e-03, -4.52092754e-05, 0., 0., 0.,
          2.07662978e-03, 3.74892983e-03, 1.06813805e-02, 1.92063898e-02,
          6.63925894e-04, 5.17072855e-03, 3.22613167e-03, 4.27140063e-03,
          3.00979032e-03, 0., 0., 0., -4.82094401e-05, -4.93363058e-03,
          -2.61662717e-05, 0., 0., 0., 0., 0., 0., 0., 0., 0., 0., 0.,
          0., 0., 0., 0., 0., 0., 0., 0., 0., 0., 0., 0., 0., 0., 0., 0.,
          0., 0., 0., 0., 0., 0., 0., 0., 0., 0., 0., 0., 0., 0., 0., 0.,
          0., 0., 0., 0., 0., 0., 0., 0., 0., 0., 0., 0., 0., 0., 0., 0.,
          0., 0., 0., 0., 0., 0., 0., 0., 0., 0., 0., 0., 0., 0., 0., 0.,
          0., 3.04678630e-04, 5.01278613e-04, 2.56988802e-04,
          -8.69830721e-04, 4.06552455e-04, 5.83796180e-04, 0., 0.,
          6.05630083e-03, 6.02273038e-03, 8.71274900e-03, 4.68248827e-03,
          -7.39652617e-03, 1.38374856e-02, 1.60154905e-02,
          9.27766599e-03, 6.07369095e-03, 0., 9.58330347e-05,
          2.02797833e-04, 5.48479264e-04, -1.02871715e-03,
          6.57122699e-04, 5.57883759e-04, 0., 0., 5.20423520e-03,
          2.33979407e-03, 4.56016418e-03, 8.17378517e-03,
          -7.39652617e-03, 1.45826936e-02, 1.54790720e-02,
          5.26262214e-03, 6.45521563e-03, 5.90106752e-03, 3.70428315e-03,
          5.29354997e-03, 2.51773489e-03, -9.55786649e-03,
          1.00675933e-02, 1.05803106e-02, 7.75568094e-03, 4.97496361e-03,
          5.04954066e-03, 5.57706598e-03, 6.15583686e-03, 1.18510881e-02,
          2.04800554e-02, 1.12830717e-02, 1.60866382e-03, 9.15700290e-03,
          6.85427058e-03, 4.26751049e-03, 1.37401593e-03, 8.86209542e-04,
          2.59255571e-03, -1.11116925e-02, 8.24256428e-03,
          1.00677023e-02, 3.45869455e-03, 4.43025632e-03, 5.48690138e-03,
          2.82665971e-03, 1.64209194e-02, 1.47337951e-02, 4.69322503e-02,
          1.14703812e-02, 4.54492960e-03, -3.07625602e-03,
          8.07802752e-03, -1.83820247e-03, 1.07986329e-03,
          4.13110899e-03, 1.76707760e-03, -1.34815928e-02,
          4.84322151e-03, 1.21732685e-03, 6.20255433e-03,
          -7.73072615e-03, -9.56016686e-03, -1.28999567e-02,
          2.55222642e-03, -4.02419642e-03, 1.42736137e-02,
          -1.12460100e-03, 7.13734841e-03, -1.29123952e-03,
          -3.34064811e-02, 7.11663812e-03, 3.75044695e-03,
          7.43378326e-03, 1.06940037e-02, 2.50861538e-03, 6.07291376e-03,
          5.71624003e-03, -2.40429817e-03, 2.28519808e-03,
          6.14552235e-04, -2.42647547e-02, -2.35983171e-02,
          -2.23163720e-02, 1.65690202e-02, -1.18075153e-02,
          6.46810792e-03, -1.67254312e-03, 7.60250818e-03,
          2.88695516e-03, -1.46291209e-02, -2.76353536e-03,
          6.43782597e-03, 1.96867790e-02, 1.66207645e-03, 8.46690312e-03,
          9.22204708e-05, 3.51901934e-03, 1.70475338e-02,
          -1.90376658e-02, -1.02921128e-02, 4.77862498e-03,
          2.32401434e-02, 3.18413065e-03, 7.18570873e-03, 1.47637934e-03,
          1.13769239e-02, 1.85866002e-02, -2.44506784e-02,
          -2.26075482e-02, -2.33762804e-02, 9.11852345e-03,
          6.83751306e-04, 4.51311888e-03, 1.05983876e-02, 2.79421266e-02,
          2.48004217e-02, -3.50272544e-02, -4.65157367e-02,
          -2.93697845e-02, -8.70511774e-03, 6.91389246e-03,
          6.78169401e-03, 2.22855769e-02, 2.97850315e-02, 1.56958103e-02,
          -1.31247845e-02, -1.47083485e-02, -2.53433874e-03,
          1.93750430e-02, 6.59283390e-03, 8.47223494e-03, 7.20337173e-03,
          1.58525165e-02, 1.27736535e-02, -9.24726017e-03,
          -2.34504566e-02, 5.55543089e-03, 8.63982178e-03,
          7.73527613e-03, 1.69233344e-02, 9.40249301e-03, 1.29562232e-03,
          1.46670388e-02, -2.59597413e-02, -4.03855704e-02,
          -8.80331546e-03, 6.01596059e-03, 1.02865947e-02,
          1.38226384e-02, 1.68284886e-02, 1.82068273e-02,
          -7.99551234e-03, -2.54949369e-02, -1.62878409e-02,
          -9.48529318e-03, -5.93401724e-03, 8.65485985e-03,
          1.99349206e-02, 1.84693448e-02, -5.27911447e-03,
          1.94737557e-02, 3.57654016e-03, -4.42860322e-03,
          9.92930587e-03, -1.06481984e-02, -8.38763546e-04,
          1.50501644e-02, 1.47516299e-02, -7.08506210e-03,
          -1.23350192e-02, 1.47031131e-03, -1.32608821e-03,
          9.34254564e-03, -1.21335760e-02, 5.44365216e-03,
          1.75920855e-02, 8.80410615e-03, -1.89606231e-02,
          -1.92925811e-03, -2.67895800e-03, 4.78516705e-03,
          1.51145589e-02, -7.33815087e-03, 8.82136170e-03,
          1.18330605e-02, 8.99228081e-03, -2.12890692e-02,
          -3.86491343e-02, -2.80354358e-03, 2.30114232e-03,
          2.59796549e-02, -1.36656733e-02, 7.07653211e-03,
          -5.18233795e-03, -1.04862554e-02, -3.77830565e-02,
          -1.84115656e-02, -3.91884474e-04, 5.62370103e-03,
          3.13710631e-03, 1.31973438e-03, 1.21429944e-02, 1.76075101e-02,
          4.80592111e-03, -1.52554316e-02, -8.05693772e-03,
          7.91364629e-03, 9.49762203e-03, 4.13900847e-03,
          -5.85262105e-03, 9.99440625e-03, 1.09768640e-02,
          9.15830396e-03, -1.02907708e-02, -3.61207686e-02,
          -1.62353448e-03, 6.48570480e-03, 5.35030197e-03,
          5.17978938e-03, 6.19048160e-03, -6.26817625e-03,
          2.25894223e-03, -2.70969421e-02, -2.04141997e-02,
          2.10900558e-03, 7.27214944e-03, -6.96212519e-03,
          -6.13631960e-03, -7.97252986e-04, -1.20929843e-02,
          -2.91122939e-03, -2.16049347e-02, 6.64837193e-03,
          1.55974608e-02, 1.92124154e-02, 8.07891972e-03, 1.09916506e-02,
          3.24454508e-03, -6.18365221e-03, 6.64413208e-03,
          -6.75285654e-03, 2.99291313e-02, 2.34894175e-02,
          1.59793273e-02, 1.63865499e-02, 1.77638866e-02,
          -7.01239472e-03, -2.70263366e-02, -2.04879120e-02,
          1.34404879e-02, -2.09634360e-02, 8.98043998e-03,
          2.17186678e-02, 1.62029697e-03, -4.65902593e-03,
          -1.76370479e-02, -3.59377414e-02, -2.77798697e-02,
          -3.30880806e-02, 3.06873000e-03, 2.02059504e-02,
          1.67157222e-02, 1.72755495e-02, -7.94441998e-03,
          -3.04219369e-02, -4.21139076e-02, -3.65855545e-02,
          -7.81615078e-03, 3.53952385e-02, 1.23509439e-02,
          2.04269085e-02, 1.99959017e-02, 1.28338058e-02,
          -1.21053196e-02, -3.74482051e-02, -3.31006013e-02,
          2.12608855e-02, 3.20097245e-02, -4.64436926e-05,
          1.39419716e-02, 8.40809313e-04, 9.39470157e-03,
          -2.06042957e-02, -3.30962837e-02, -1.86358783e-02,
          2.93599181e-02, 9.66818631e-03, 4.65253601e-03, 7.97044951e-03,
          1.82284508e-02, -5.62982075e-03, -6.55851047e-03,
          -2.73383390e-02, -1.51264919e-02, 8.99253041e-03,
          1.84589569e-02, 1.15779508e-03, 8.52428749e-03, 4.16740263e-03,
          -6.53071096e-04, -1.07268989e-02, -1.10332826e-02,
          -1.29057318e-02, 1.44515168e-02, 1.08538307e-02,
          8.55336804e-03, 4.35920293e-03, 5.18974755e-03, 4.43835789e-03,
          -2.64776181e-02, -4.02565934e-02, -1.82308834e-02,
          2.55119354e-02, 8.99538212e-03, 2.15089042e-02, 1.11305350e-02,
          1.51938945e-02, 4.38169278e-02, -2.41021849e-02,
          -3.66598517e-02, -9.77408234e-03, 2.42848936e-02,
          1.35207959e-02, -2.55267648e-03, -1.51094911e-03,
          -4.02573496e-03, -1.47827500e-02, -3.06942873e-02,
          -2.49695461e-02, -1.78191178e-02, 2.18883026e-02,
          1.73376668e-02, 8.49438086e-03, 4.25711181e-03, 2.11783801e-03,
          2.43642237e-02, -3.71151827e-02, -3.60132009e-02,
          -1.63873974e-02, 1.96817704e-02, -4.69477568e-03,
          8.21195915e-03, 8.54015071e-03, -4.48260084e-03,
          3.03944051e-02, -3.98293771e-02, -5.88103160e-02,
          -2.74730343e-02, 2.51669693e-03, 2.17307336e-03,
          6.06930163e-03, 3.35876690e-03, 1.38840929e-03, 4.22838703e-03,
          -3.72868567e-03, 2.75072223e-03, 7.66712148e-03,
          4.45468817e-04, 8.88764113e-03, 9.46972053e-03,
          -4.20637589e-05, -1.28536178e-02, 3.93407606e-02,
          -5.80811277e-02, -6.42582700e-02, -3.95632461e-02,
          3.34321964e-03, 5.76047739e-03, 5.38548501e-03, 2.55861483e-03,
          -6.27886783e-03, 1.27483774e-02, -8.94069299e-03,
          -9.08916444e-03, 1.51387369e-03, 5.22286352e-03,
          2.92449887e-03, 1.50811477e-02, 6.97743846e-03, 1.05286762e-02,
          1.48477973e-02, -9.91842942e-04, 8.52213334e-03,
          1.52270980e-02, 3.66653805e-03, 2.85569881e-03, 8.98731407e-03,
          7.58043723e-03, 6.41659927e-03, -1.35474224e-02,
          2.47068889e-03, 2.96320929e-03, 6.51808339e-04, 1.68315659e-03,
          1.31039666e-02, 1.52361356e-02, 1.46572124e-02, 2.20805290e-03,
          2.09759939e-02, -1.07115172e-02, -3.63620487e-03,
          8.00643582e-03, 8.46977904e-03, 8.36903322e-03, 9.72657185e-03,
          6.80731330e-03, 1.18737319e-03, -8.46636575e-03,
          4.55159578e-04, 1.26973505e-03, 1.34594564e-03, 4.21209261e-03,
          3.84808425e-03, 1.24904290e-02, 1.13740517e-02, 1.07390303e-02,
          -1.64621766e-03, 2.18826858e-03, 2.89315660e-03,
          1.47441309e-03, 2.33811396e-03, 0., 0., 0., -5.74740261e-05,
          -4.47110739e-03, -6.31040748e-05, 0., 0., 0., 6.66773180e-03,
          1.41321747e-02, 7.79629545e-03, 3.25836311e-03, 3.77020944e-04,
          6.76927669e-03, 5.34769101e-03, 1.75009086e-03, 4.71028639e-03,
          0., 0., 0., -8.39533168e-05, -4.04477492e-03, -9.83700447e-05,
          0., 0., 0., 0., 0., 0., 0., 0., 0., 0., 0., 0., 0., 0., 0., 0.,
          0., 0., 0., 0., 0., 0., 0., 0., 0., 0., 0., 0., 0., 0., 0., 0.,
          0., 0., 0., 0., 0., 0., 0., 0., 0., 0., 0., 0., 0., 0., 0., 0.,
          0., 0., 0., 0., 0., 0., 0., 0., 0., 0., 0., 0., 0., 0., 0., 0.,
          0., 0., 0., 0., 0., 0., 0., 0., 0., 0., 0., 0., 0.,
          1.21991638e-04, 7.93853891e-04, 4.02534351e-05, 2.44487368e-04,
          1.62508368e-04, 2.20067759e-05, 0., 2.62088352e-03,
          3.94924451e-03, 4.69740806e-03, 1.44973267e-02,
          -4.01718123e-03, 8.47362261e-03, 6.94717839e-03,
          3.03506153e-03, 3.36718815e-03, 2.60114484e-05, 1.19511467e-04,
          2.76015635e-04, 4.06491221e-04, 2.92946788e-04,
          -1.87171117e-05, 2.66077201e-04, 3.41984181e-04,
          2.11385559e-04, 2.16410891e-03, 6.58276537e-03, 7.45097734e-03,
          7.27550220e-03, -4.01718123e-03, 2.01098202e-03,
          7.45731173e-03, 1.35694174e-02, 1.50814364e-02, 1.64442393e-03,
          2.59896647e-03, 3.79417324e-03, 5.45386411e-03,
          -8.30173213e-03, 4.47993446e-03, 5.24600083e-03,
          1.93920964e-03, 2.63574091e-03, 6.27016928e-03,
          -5.02908090e-03, 2.02537104e-02, 1.08002033e-02,
          6.08746149e-02, 1.08819818e-02, 5.41780464e-05,
          -3.98207037e-03, 1.12952227e-02, 9.62422637e-04,
          4.32217494e-03, 5.61897596e-03, 2.53962190e-03,
          -7.56520312e-03, 1.49854086e-03, 4.81785974e-03,
          8.85637384e-03, 1.05854487e-02, -5.90605708e-03,
          -9.10349283e-03, 4.25353041e-03, 2.71376269e-03,
          1.87630299e-02, 1.09371478e-02, -1.43252015e-02,
          -5.88222500e-03, 7.17570819e-03, 1.22687491e-02,
          6.80369046e-03, 1.03651043e-02, 1.23124849e-02, 1.25091197e-02,
          5.92022855e-03, 7.44086131e-03, 3.37702385e-03, 1.48454225e-02,
          3.84283648e-03, -8.38890392e-03, -6.10631658e-03,
          -8.51700224e-06, 1.91685297e-02, -8.42487533e-03,
          1.10807279e-02, 7.47754565e-03, 1.88149009e-02,
          -7.51122879e-03, -4.39140620e-03, -3.35969613e-04,
          1.98791386e-03, -6.40989793e-03, 4.28843405e-03,
          -4.86142933e-03, -2.35029589e-03, 2.08865781e-03,
          -4.08472754e-02, -2.92404201e-02, -2.07916200e-02,
          -2.27558501e-02, 1.64559986e-02, -3.63469049e-02,
          -9.14245844e-03, -1.51991239e-02, -2.14322563e-02,
          1.11275241e-02, -9.74206720e-03, -5.58986003e-03,
          -2.00925884e-03, 4.34065796e-02, 4.04155254e-03,
          1.23678250e-02, 1.87852178e-02, 2.01917030e-02, 1.90091301e-02,
          -2.05423217e-02, -1.59279536e-02, -1.19216843e-02,
          3.44805699e-03, 1.38018792e-02, 2.07293015e-02, 3.14012319e-02,
          2.53214054e-02, -1.74000692e-02, -2.21021231e-02,
          -6.86452445e-03, -1.14414040e-02, 2.69565266e-02,
          -1.31709184e-02, 3.85943428e-03, 4.38563759e-03,
          -6.89883204e-03, -1.18008824e-02, -4.73302938e-02,
          -2.87045203e-02, -2.23432537e-02, -8.68550874e-03,
          -1.40254823e-02, -5.23605710e-03, 5.41094225e-03,
          -7.46356696e-03, 1.78104006e-02, -2.42050309e-02,
          -2.28619259e-02, -1.61415599e-02, -8.44795350e-03,
          1.14120115e-02, 3.07456683e-02, 2.18400694e-02, 1.90422628e-02,
          1.57378502e-02, -1.18532758e-02, -1.36189610e-02,
          -7.93269556e-03, -4.87514026e-03, 1.39167113e-02,
          3.94980796e-02, 2.22136788e-02, 1.57731809e-02,
          -5.52144879e-03, -3.66668887e-02, -2.40439996e-02,
          -1.31553253e-02, -2.11497713e-02, -4.37369850e-03,
          8.25009961e-03, -3.84717737e-03, 8.57628242e-04,
          9.84362047e-03, -6.81865914e-03, -5.37287490e-03,
          -1.20708412e-02, -1.69048570e-02, -5.47281373e-03,
          1.85626019e-02, -2.80840788e-03, 7.76790967e-03,
          -1.54478976e-03, 1.46954006e-03, 7.80163973e-05,
          5.96313924e-03, -5.63494070e-03, -4.20053257e-03,
          1.26046818e-02, 1.17264697e-02, -1.05732204e-02,
          -8.84551648e-03, 7.81091070e-03, 7.19129527e-03,
          2.39468496e-02, 1.50421867e-02, 1.21301487e-02,
          -9.57171433e-04, 6.51519420e-03, -1.25749540e-02,
          -9.86412633e-03, 5.66376513e-03, -8.60338449e-04,
          -1.28787206e-02, -1.24279037e-02, -3.22977751e-02,
          2.73409532e-03, -7.74447154e-03, -1.83972921e-02,
          -2.55509429e-02, 9.83193144e-03, 2.94948206e-03,
          9.09621827e-03, 2.61680456e-03, -9.53771453e-03,
          -3.95136420e-03, -5.29492227e-03, -1.88651495e-02,
          2.87565589e-03, -7.06655032e-04, 4.08115191e-03,
          8.92542768e-03, 1.02585517e-02, 1.19298715e-02,
          -8.34974181e-03, 1.32892272e-02, 1.26757426e-02,
          9.09276865e-03, -7.79308379e-03, 5.42041333e-03,
          5.38124237e-03, -4.10080841e-03, -1.12674180e-02,
          -2.87514664e-02, -6.01615012e-03, 3.76202096e-03,
          -1.80999632e-03, -2.64591188e-03, 1.71201536e-03,
          5.49925072e-03, 1.29814288e-02, 5.31628123e-03,
          -5.73566603e-03, 2.23842589e-03, -2.20781681e-03,
          -1.04045272e-02, -2.40263287e-02, 1.22242584e-03,
          -4.29999549e-03, 2.54125916e-03, -2.53257286e-02,
          -2.91832257e-02, -1.02348169e-02, -1.60531122e-02,
          2.05644742e-02, 1.49727939e-02, 2.09412072e-02, 1.03607168e-02,
          1.51956677e-02, -1.21066067e-02, -2.72370335e-02,
          -1.05427112e-02, 7.63833942e-03, 2.35425979e-02,
          2.74005681e-02, 1.62573848e-02, -2.02672812e-03,
          2.49412400e-03, -9.38523747e-03, -1.14523396e-02,
          -8.66397843e-03, 2.17453986e-02, -5.04614878e-03,
          -1.13385729e-02, -2.74930731e-03, -1.77190397e-02,
          5.45931095e-03, -2.85871141e-02, -2.91727185e-02,
          -1.08705927e-02, -1.58225689e-02, 2.74087605e-03,
          6.05185609e-03, 8.57466715e-04, -2.36310810e-02,
          -1.30227748e-02, -2.35959459e-02, -1.75098199e-02,
          -4.23162710e-03, -8.20237212e-04, 1.01632476e-02,
          1.44137244e-03, 8.77871295e-04, 5.66842966e-04,
          -8.34138691e-03, 1.24045077e-03, -3.71506874e-04,
          -3.66865564e-03, 8.53654183e-03, 1.43206147e-02,
          5.79348812e-03, 6.75092544e-03, 3.65467393e-03, 8.91254935e-03,
          9.90677159e-03, 7.71535188e-03, -6.91589806e-03,
          -1.23814505e-03, -2.62421719e-03, -6.86427532e-03,
          -1.77642982e-03, -9.16467234e-03, -2.92750206e-02,
          -1.21070128e-02, -3.79786617e-03, -5.89103019e-03,
          -9.12572257e-04, 1.31648418e-03, -6.75807893e-03,
          1.44669609e-02, 6.65170280e-03, 5.61993150e-03,
          -1.10313455e-02, 5.72479190e-03, -6.13040989e-03,
          -8.24674964e-03, 2.49721832e-03, -3.50636011e-03,
          -2.08613044e-03, -1.78326201e-02, -1.04656387e-02,
          -1.54116368e-02, -1.44117409e-02, -2.33700350e-02,
          9.93676111e-03, 2.71096379e-02, 7.46793859e-03, 8.15377478e-03,
          -1.46995811e-02, 2.87891626e-02, -2.16017384e-02,
          -1.77512877e-02, -1.64566259e-03, 2.74224412e-02,
          3.53280245e-03, 6.52468472e-04, 1.09989885e-02,
          -4.48245555e-03, -6.25961274e-03, -2.85477582e-02,
          -1.89778581e-02, -3.18765827e-02, 4.44505783e-03,
          1.64232031e-02, -5.17217582e-03, -2.03692634e-02,
          -2.59501711e-02, 1.24294385e-02, -1.65629126e-02,
          -1.06261168e-02, -1.07477643e-02, 1.90414004e-02,
          2.58961711e-02, 1.17958412e-02, -3.87707201e-04,
          -3.23451720e-02, 2.81451792e-02, -3.78707424e-02,
          -3.64548527e-02, -1.14867452e-03, 1.81287620e-02,
          1.32795898e-02, 9.25076939e-03, 6.16322365e-03, 1.01764788e-04,
          1.52867045e-02, -3.49665614e-04, -3.76103376e-03,
          1.12507644e-03, 1.25921713e-02, 2.28344626e-03,
          -2.55296435e-02, -3.85848209e-02, -4.36548181e-02,
          2.54964884e-02, -2.34256629e-02, -1.06793651e-02,
          -8.50316510e-03, 2.30230065e-03, -7.93914776e-03,
          3.03106173e-03, 7.79485703e-03, -4.20567486e-03,
          7.28701893e-03, -2.35019135e-03, -9.69918212e-04,
          -9.29454807e-03, -6.84287027e-03, 1.08708581e-02,
          1.09330891e-02, 1.24309175e-02, 8.60275514e-03, 2.46217269e-02,
          -5.46331052e-03, -7.82561582e-03, -4.47907578e-03,
          6.54285727e-03, 5.32864919e-03, 5.30946022e-03, 1.08308848e-02,
          5.47945546e-03, 2.75713392e-04, 5.35116950e-03, 1.13753334e-03,
          4.23500387e-05, 4.16677492e-03, -2.90653645e-03,
          1.06847724e-02, 9.19217337e-03, 2.43062573e-03, 2.13391930e-02,
          -1.22774309e-02, -8.80138949e-03, -1.45911099e-02,
          -1.29202679e-02, -2.10219459e-03, 6.51595742e-03,
          1.12209553e-02, 1.00032566e-02, -3.25749000e-03,
          -1.55506865e-03, -2.57021165e-03, -7.12501060e-04,
          -6.10148441e-03, 2.45382031e-03, 5.67884929e-03,
          9.27370135e-03, 4.93462011e-03, 2.17553624e-03, 1.21576823e-02,
          3.59141640e-03, 4.85823490e-04, 3.38203134e-03, 0., 0., 0.,
          -7.97892499e-05, -3.69172194e-03, -9.13628028e-05, 0., 0., 0.,
          1.16575230e-03, 3.89344641e-03, 1.67521201e-02, 9.81385261e-03,
          -7.15848524e-04, 1.41702418e-03, -1.06474233e-03,
          2.59818928e-03, -1.74104562e-03, 0., 0., 0., -6.54254109e-05,
          -4.27479157e-03, -1.10439971e-04, 0., 0., 0., 0., 0., 0., 0.,
          0., 0., 0., 0., 0., 0., 0., 0., 0., 0., 0., 0., 0., 0., 0., 0.,
          0., 0., 0., 0., 0., 0., 0., 0., 0., 0., 0., 0., 0., 0., 0., 0.,
          0., 0., 0., 0., 0., 0., 0., 0., 0., 0., 0., 0., 0., 0., 0., 0.,
          0., 0., 0., 0., 0., 0., 0., 0., 0., 0., 0., 0., 0., 0., 0., 0.,
          0., 0., 0., 0., 5.87021495e-05, 3.51561583e-04, 3.15501355e-04,
          3.13501863e-04, -1.49351265e-03, -1.42408853e-05,
          1.33984766e-04, 1.76089787e-04, 1.75497247e-04, 6.49999641e-03,
          6.55651558e-03, 6.48125587e-03, 5.47859864e-03,
          -4.21267562e-03, 2.62988149e-03, 4.00162674e-03,
          9.23017226e-03, 1.55308265e-02, 2.66827938e-05, 2.30289326e-04,
          3.01005901e-04, 4.47751197e-04, 1.47299306e-03, 1.00966054e-03,
          1.54170353e-04, 6.57675002e-07, 1.16998172e-05, 7.29318475e-03,
          6.87129656e-03, 8.66614468e-03, 8.98042694e-03,
          -4.21267562e-03, 1.28729725e-02, 2.57650530e-03,
          1.32498913e-03, 5.09630702e-03, 3.76018346e-03, 3.88782402e-03,
          4.33038827e-03, 1.82956376e-03, -2.20210338e-03,
          4.98665078e-03, 3.24851461e-03, 6.99284114e-03, 1.17152277e-02,
          1.03061588e-03, -2.95532215e-03, -6.48139231e-03,
          -1.67328538e-03, 3.63819823e-02, 1.24330213e-02,
          5.39870700e-03, 3.20196035e-03, 4.13509924e-03, 3.73962102e-03,
          5.28250402e-03, 7.37233646e-03, 4.24448773e-03,
          -2.06212490e-03, 7.42058596e-03, 2.25125044e-03,
          1.39278104e-03, 3.52378539e-03, -3.34022893e-03,
          -7.55547639e-03, 5.93857199e-04, -1.18689425e-03,
          3.86495665e-02, 5.93685836e-04, 1.02604078e-02, 3.47429817e-03,
          -2.08890461e-03, -1.00322608e-02, -1.75606331e-03,
          1.97618012e-03, 2.88092182e-03, 9.24455188e-03, 8.51608906e-03,
          -3.63778439e-04, 1.59709645e-03, 1.64642639e-03,
          -2.57814489e-02, -1.31003605e-02, -2.68650008e-03,
          -1.80399697e-02, 2.09182743e-02, -1.83014534e-02,
          -1.19844461e-02, -7.03232782e-03, -2.45655272e-02,
          -7.81764556e-03, 2.15959875e-03, 5.79178985e-03,
          -3.72131076e-03, -1.20875007e-03, 7.79311452e-03,
          4.30318201e-03, 1.79392053e-03, -3.11722804e-04,
          -1.65387820e-02, 5.61782764e-03, 7.62857636e-03,
          -3.25410813e-02, 1.05236974e-02, -9.23249032e-03,
          -3.71316192e-03, -4.58191521e-03, -5.01764116e-05,
          -4.77260491e-03, 4.09265194e-04, -3.24585475e-03,
          -1.36930877e-02, 2.27695070e-02, -1.63850170e-02,
          -4.24584094e-03, 5.30159287e-03, 3.26496025e-04,
          -4.24604258e-03, -1.50278304e-02, -1.53849814e-02,
          -1.50706945e-02, -2.11679917e-02, -1.87516306e-02,
          -1.50885619e-02, 3.55791743e-03, 2.48237047e-03,
          3.96724651e-03, 2.00638901e-02, 1.14665367e-02,
          -2.38092523e-02, 2.14135386e-02, -1.32352822e-02,
          7.30503001e-04, 7.89330993e-03, 2.21146308e-02, 4.16867528e-03,
          6.59044599e-03, 3.07275378e-03, -1.28212320e-02,
          -2.21764296e-02, -1.97146758e-02, -1.41640874e-02,
          9.16222855e-03, 1.41676897e-02, 1.00292289e-03,
          -1.21039692e-02, -6.10938109e-03, -1.22044038e-03,
          -2.54715756e-02, -1.33112436e-02, -1.63008599e-03,
          -4.80794488e-03, 9.12211090e-03, 1.75633654e-02,
          1.26757342e-02, 1.06941331e-02, 2.39141542e-03,
          -1.68972965e-02, -1.25564411e-02, 1.16040306e-02,
          6.35083998e-04, 8.71455576e-03, 2.28750762e-02, 1.17197707e-02,
          6.48850994e-03, -1.17241144e-02, -2.31113136e-02,
          -1.95874702e-02, 1.20132242e-03, 3.78568750e-03,
          2.39594672e-02, 2.84384321e-02, 1.69752836e-02, 1.04034059e-02,
          -1.95108354e-02, -2.82136276e-02, -3.23329605e-02,
          6.35354826e-03, 3.07303295e-03, 2.03360580e-02, 1.17001226e-02,
          1.31993648e-02, 2.15714681e-03, -2.66524381e-03,
          -2.40355339e-02, -1.16039552e-02, 1.17783016e-02,
          4.48092993e-04, -7.90993683e-04, 5.17739136e-05,
          9.37707722e-03, 7.45454803e-04, 3.07826046e-03,
          -7.41957966e-03, 4.79891710e-03, 6.83829095e-03,
          -9.39940161e-04, -5.69261843e-03, 1.45403203e-02,
          -2.25971849e-03, -8.33766814e-03, -2.77179964e-02,
          -3.27616334e-02, -2.68126726e-02, -2.43753637e-03,
          -2.81704182e-04, 5.07762330e-03, 2.07892945e-03,
          -1.16175422e-02, -2.04618722e-02, -2.06454005e-02,
          -1.48733715e-02, -5.64814080e-03, 9.23028309e-03,
          1.51786031e-02, 7.68073695e-03, -2.42579146e-03,
          4.14531911e-03, -3.67245334e-03, -8.55949521e-03,
          -5.67514170e-03, -3.46240762e-04, -1.18387875e-03,
          -7.21078878e-03, -7.45458016e-03, -1.19445426e-02,
          -1.24213146e-02, -6.49505819e-04, -1.98742356e-02,
          -1.23289088e-02, -1.11526418e-02, 4.49565152e-04,
          -5.66934235e-03, -1.41177280e-02, 1.03814267e-02,
          -2.68086465e-03, -1.71410721e-02, -1.60382893e-02,
          -1.39354374e-02, -1.85579360e-02, 1.63265262e-02,
          1.55017171e-02, 1.33561511e-02, 1.45871751e-02, 4.47485549e-03,
          4.22126520e-03, -3.94712342e-03, -2.11517159e-02,
          -2.09743418e-02, 1.72579717e-02, 1.93306094e-03,
          1.41656480e-03, 7.37310620e-04, -4.36093612e-03,
          2.77514453e-03, -1.92828663e-02, -6.23918744e-03,
          -1.49589507e-02, -7.37445289e-03, 6.55977856e-05,
          -2.22556503e-03, 3.29288584e-03, 9.08895768e-03,
          2.38410290e-03, -2.03238390e-02, -1.83240008e-02,
          -3.20244841e-02, -1.69528071e-02, -5.00753801e-03,
          3.12516117e-03, 2.23420151e-02, 1.14254383e-02, 2.20141578e-02,
          3.76158650e-03, -2.36820593e-03, -8.55804607e-03,
          7.41460966e-03, 8.03053752e-03, 2.06740350e-02, 6.30529970e-03,
          6.74046390e-03, 2.23208335e-04, -9.15928837e-03,
          -7.48389307e-03, -2.46711690e-02, -1.15594054e-02,
          1.67473999e-03, 1.34255923e-02, 1.12586515e-03,
          -4.82865889e-03, -1.45425287e-03, -1.47141302e-02,
          -4.83861715e-02, -2.14575380e-02, -5.27415844e-03,
          -4.08717012e-03, -6.22115273e-04, 7.53892260e-03,
          2.56894762e-03, 1.69302803e-02, 3.91770300e-04,
          -8.68353155e-03, 6.16660900e-03, 1.59682184e-02,
          1.62541438e-02, 3.68205993e-03, 4.43606201e-04,
          -3.24632484e-03, -7.75719108e-03, -1.15017202e-02,
          -3.71716395e-02, -1.89476218e-02, -1.45147124e-03,
          -4.16350504e-03, -4.62655211e-03, 1.94785977e-03,
          1.98583808e-02, 2.04551257e-02, -5.08784130e-03,
          -1.08540002e-02, 9.17743333e-03, 1.87039953e-02,
          2.02413667e-02, -6.79807551e-03, 7.87338149e-03,
          3.88084649e-04, 1.10789444e-02, -3.72816133e-03,
          -1.87843256e-02, -4.19086311e-03, 4.02990263e-03,
          -1.88339583e-03, 6.25241408e-03, 5.56040276e-03,
          -1.68458186e-02, -1.74678862e-02, -1.91540644e-02,
          3.89217027e-03, -7.82473199e-03, -8.15639179e-03,
          -1.06120957e-02, -2.58846860e-03, 1.82951603e-03,
          -6.44879509e-03, 6.33170304e-04, -1.11843068e-02,
          -2.78326720e-02, -6.15982059e-03, 1.28372442e-02,
          1.61973648e-02, 5.06702764e-03, 7.95089640e-03,
          -1.06845610e-02, -1.86865684e-02, -1.90622825e-02,
          1.05499281e-02, -8.80512036e-03, 3.70392390e-03,
          -5.20354370e-04, 3.05263838e-03, -5.46618737e-03,
          -3.80427837e-02, -3.25778574e-02, -3.72315682e-02,
          2.52187308e-02, -1.64618026e-02, -1.50918681e-02,
          -2.03951783e-02, -1.44933658e-02, -3.33444634e-03,
          1.80082850e-03, 1.33337611e-02, 8.43984261e-03, 1.51076000e-02,
          3.64857703e-03, 5.10140555e-03, -2.05513276e-03,
          -6.35320833e-03, -5.91327669e-03, -1.78273916e-02,
          -2.06984710e-02, -2.83583384e-02, 2.33780313e-02,
          -9.46754310e-03, -1.69755556e-02, -1.60206184e-02,
          -1.85614545e-02, -4.12897812e-03, -7.18318741e-04,
          1.57593749e-02, 3.87348677e-03, -5.76809049e-03,
          8.70472938e-03, 4.32704296e-03, -6.76275231e-04,
          -9.76879802e-03, -1.96037302e-03, 8.91220756e-03,
          1.39159327e-02, 3.04575311e-04, 1.77508518e-02,
          -4.31691715e-03, 5.41881891e-03, -1.71106099e-03,
          -7.03240186e-03, 3.46070505e-03, 5.22142230e-03,
          1.12350825e-02, 7.99386017e-03, -1.49545714e-03,
          -7.24085257e-04, -7.56017223e-04, 2.84092454e-03,
          -3.78292723e-04, -7.93450419e-03, -2.99786916e-03,
          1.53437546e-02, -2.14280840e-03, 1.85813121e-02,
          1.96664408e-03, 4.94925911e-03, 2.78808339e-03,
          -1.18623776e-02, 6.49560150e-03, 1.64531718e-03,
          1.02034127e-02, 1.72564341e-03, -7.15093222e-04,
          6.87576307e-04, 1.70034659e-03, 3.05594946e-03, 6.51708292e-03,
          9.24823899e-03, 3.42976768e-03, 1.41884126e-02, 8.59371107e-03,
          -1.28032800e-04, -1.52582861e-03, -1.25003676e-03,
          7.98114762e-03, 3.54732759e-03, 0., 0., 0., -4.98628469e-05,
          -3.55581031e-03, -6.95730123e-05, 0., 0., 0., 1.09812077e-02,
          3.18741193e-03, 9.85418726e-03, 1.57563342e-03, 2.29737605e-03,
          -5.87269664e-04, 2.64192652e-03, 3.24869249e-03,
          1.08242976e-02, 0., 0., 0., -4.81080970e-05, -5.08819986e-03,
          -7.21851393e-05, 0., 0., 0., 0., 0., 0., 0., 0., 0., 0., 0.,
          0., 0., 0., 0., 0., 0., 0., 0., 0., 0., 0., 0., 0., 0., 0., 0.,
          0., 0., 0., 0., 0., 0., 0., 0., 0., 0., 0., 0., 0., 0., 0., 0.,
          0., 0., 0., 0., 0., 0., 0., 0., 0., 0., 0., 0., 0., 0., 0., 0.,
          0., 0., 0., 0., 0., 0., 0., 0., 0., 0., 0., 0., 0., 0., 0., 0.,
          0., 0., 5.38037020e-05, 7.61885312e-05, 2.84275203e-03,
          1.26201694e-03, 5.01035945e-04, 0., 0., 6.33741822e-03,
          6.45087473e-03, 5.01257367e-03, 1.04939274e-03,
          -1.17292104e-03, 1.75808053e-02, 8.81566387e-03,
          9.63220722e-04, 2.21941457e-03, 0., 0., 0., -6.43243329e-05,
          -9.94556001e-04, 2.45817704e-04, 4.60914045e-04,
          2.87501935e-05, 8.95196820e-07, 1.06035247e-02, 7.22828833e-03,
          2.84861540e-03, -2.54128920e-03, -1.17292104e-03,
          4.14055726e-03, 7.97059201e-03, 2.58619478e-03, 4.24733944e-03,
          3.97825148e-03, 6.77222665e-03, 5.20022213e-03,
          -2.21207127e-04, -2.89380224e-03, 8.63597915e-03,
          5.35614183e-03, 9.62966646e-04, 1.37926626e-03,
          -9.08475718e-04, 9.20477789e-03, 5.38440887e-03,
          -1.04848351e-02, 2.50045042e-02, 2.76615086e-04,
          8.65964685e-03, 3.69540765e-03, 1.86127028e-03, 7.71263894e-03,
          7.87093118e-03, 2.78586242e-03, -3.76268011e-03,
          -4.60489932e-03, 1.87729672e-03, 3.41417897e-03,
          1.26684399e-03, 5.64591773e-03, 1.66159626e-02, 1.35817695e-02,
          1.20008532e-02, -3.39577608e-02, 3.48761044e-02,
          -6.53732009e-03, 1.44779468e-02, 1.66718066e-02,
          1.48326308e-02, -7.46756420e-03, 8.45823810e-03,
          7.60082435e-03, -7.07727857e-03, -2.90634856e-02,
          6.75703352e-03, 5.21752145e-03, 1.41457072e-03,
          -2.78642424e-03, -1.25098918e-02, 1.98129583e-02,
          4.56451811e-03, -3.35959643e-02, -1.71183213e-03,
          -8.83207843e-03, 8.33114795e-03, -1.18457191e-02,
          9.26434901e-03, 1.21674426e-02, 1.13766324e-02, 1.01441704e-02,
          -1.12240389e-02, -2.11156737e-02, 5.15192049e-03,
          8.59444961e-03, 1.36265103e-02, 4.26038122e-03, 9.05044656e-03,
          1.68667547e-02, 1.65007245e-02, -2.29011700e-02,
          7.68575817e-03, 4.72025509e-04, -3.54481768e-03,
          -6.80551911e-03, 3.43304523e-03, 1.02038141e-02,
          2.73048412e-02, 1.63940080e-02, -4.82806750e-03,
          1.13068884e-02, -5.55250468e-03, 3.82598082e-04,
          -6.25007320e-03, 2.35728472e-02, -2.40729336e-04,
          -1.00949372e-04, -2.43344624e-03, -2.42531132e-02,
          -3.10479738e-02, -2.38296483e-02, -1.92361549e-02,
          -7.25937961e-03, 1.76810892e-03, 2.30561346e-02,
          2.22770441e-02, 1.55940577e-02, 1.98814622e-03, 2.17477661e-02,
          -6.88037463e-03, -5.79816569e-03, -7.87502807e-03,
          1.73788499e-02, 5.23796026e-03, 1.46092111e-02, 1.11200223e-02,
          -2.17386167e-02, -2.84919254e-02, -3.00375689e-02,
          -2.71533858e-02, -2.19233688e-02, -7.09767453e-03,
          2.25432590e-02, 1.16694905e-02, 2.84932251e-03,
          -1.16073685e-02, -2.83587761e-02, -1.38196470e-02,
          2.05951929e-03, 4.22337977e-03, 1.60018187e-02, 2.96270810e-02,
          1.39261037e-02, 1.08110299e-02, -1.45888859e-02,
          -3.41750830e-02, -2.46916190e-02, 9.15288087e-03,
          7.20734010e-03, 2.70447694e-02, 1.73951723e-02, 1.27368169e-02,
          8.93361960e-03, -1.71878561e-02, -1.23389261e-02,
          -2.36998405e-02, -1.49972746e-02, -8.96782521e-03,
          9.79210436e-03, 3.25430483e-02, 2.96748755e-03, 8.56715441e-03,
          -5.36809396e-03, -2.15244852e-02, -3.05072125e-02,
          -1.17154755e-02, -3.63026164e-03, 3.95447947e-02,
          1.27683738e-02, 6.40681596e-04, 6.16799993e-03,
          -2.39799265e-02, -2.99935974e-02, -2.32650880e-02,
          -1.01861702e-02, 3.58524546e-03, 1.83145814e-02,
          1.55915075e-03, -1.31401317e-02, -7.04766111e-03,
          -1.61508135e-02, -9.10472684e-03, -6.31808350e-03,
          1.16540364e-03, 1.49878114e-02, 1.19504342e-02, 1.07086338e-02,
          -9.20462830e-04, 4.59404010e-03, -2.03882414e-03,
          -1.44404527e-02, -3.09620891e-02, -1.44217806e-02,
          -4.30261809e-03, 1.25768967e-02, -1.73153952e-02,
          9.38349229e-04, 4.24131239e-03, 1.61578169e-03, 8.61209538e-03,
          -7.91192148e-03, 1.37180146e-02, 2.55893823e-03,
          -6.40397659e-03, 2.61403969e-03, -2.78588794e-02,
          -3.62969562e-02, -2.05598939e-02, -2.29980908e-02,
          -2.72924453e-02, 1.04777496e-02, 1.33269662e-02,
          1.20288795e-02, 1.74658056e-02, 4.94498480e-03,
          -6.24460448e-03, 3.20503674e-03, -2.00042780e-02,
          -2.36367229e-02, 1.02968784e-02, 6.20045746e-03,
          1.21249212e-02, -1.22647043e-02, -6.83404971e-04,
          -1.67430565e-02, -4.65116650e-03, -2.30546738e-03,
          -9.52003151e-03, 1.82523821e-02, 4.29336121e-03,
          -7.85871688e-03, 5.95931942e-03, 1.06392968e-02,
          -8.37862492e-03, 1.28776915e-02, 8.97008646e-03,
          3.24994256e-03, 1.23582045e-02, 5.48880128e-03, 2.45025307e-02,
          1.51731204e-02, 1.36928288e-02, 3.42464470e-03, 3.47832730e-03,
          -2.08186824e-02, -9.74898133e-03, 5.61541272e-03,
          5.80195105e-03, 1.45801445e-02, -4.54316149e-03,
          1.04618389e-02, -1.14663169e-02, -1.17497928e-02,
          -3.82401831e-02, -2.13904437e-02, 1.75636937e-03,
          -1.49050102e-04, -3.70550854e-03, 1.86216123e-02,
          1.30843511e-02, -1.71332192e-02, 4.37094038e-03,
          -1.86587162e-02, -3.51652247e-03, 1.00561781e-02,
          8.43718927e-03, 3.02703846e-02, 6.87128352e-03, 9.17721633e-03,
          -1.02376090e-02, -1.23314029e-02, -3.21193859e-02,
          -1.03092240e-02, 3.35361883e-02, 1.66766420e-02,
          5.80863329e-03, -8.33164249e-03, 5.75594651e-03,
          -8.62216670e-03, -4.56357282e-03, -3.74813415e-02,
          -1.66326482e-02, 3.05481278e-03, -1.04285302e-02,
          -1.06668295e-02, -7.82164279e-03, 9.01263021e-03,
          1.54796001e-02, 5.34664094e-03, 1.13730354e-03,
          -1.21224429e-02, -7.16739986e-03, -4.77938261e-03,
          -9.38439928e-03, 1.30155440e-02, 3.55755584e-03,
          -6.06775808e-04, -7.34660134e-04, -1.50694726e-02,
          4.03006002e-03, 3.45592424e-02, 1.50776561e-02, 2.17514648e-03,
          6.66362233e-03, -1.41538782e-02, 2.90446682e-04,
          3.85223236e-03, 2.03771535e-02, 3.37700872e-03, 1.32240551e-02,
          1.42780598e-02, 2.73038284e-03, -9.67491139e-03,
          -1.41770802e-02, -8.25399766e-04, -1.14105921e-02,
          -1.06544858e-02, -1.94091331e-02, -3.78166977e-03,
          1.06287068e-02, -9.03636497e-03, -4.23555868e-03,
          -1.44113414e-02, -1.53042581e-02, -1.89543720e-02,
          2.08273642e-02, -4.59325779e-03, 8.95948801e-03,
          1.92840735e-03, -1.76424289e-03, -4.27405676e-03,
          -2.27559861e-02, -2.48664804e-03, 1.01630215e-03,
          1.19417189e-02, 4.69396636e-03, 4.95901052e-03, 1.67764053e-02,
          -8.70634522e-03, -5.64060733e-03, -1.19611304e-02,
          -9.46568698e-03, -1.20374345e-04, 4.81867082e-02,
          1.11964764e-02, 1.30780721e-02, 4.36338643e-03,
          -1.69224702e-02, -1.23278592e-02, -1.14610484e-02,
          -1.21874809e-02, -1.57191120e-02, 2.04080269e-02,
          -2.55004736e-03, -1.52044371e-03, -1.30548272e-02,
          -2.70039663e-02, -6.76984806e-03, -4.67336318e-03,
          3.34336050e-03, -1.18696271e-03, -1.08503671e-02,
          8.83377809e-03, 9.67743061e-03, -5.82209323e-03,
          -1.97164044e-02, -2.16707792e-02, -1.78504549e-02,
          -1.15353260e-02, 3.89874191e-03, 2.77235582e-02,
          7.73247238e-03, 8.88836395e-04, -1.57322586e-02,
          -3.21196094e-02, 2.78250454e-03, 2.20115460e-03,
          -7.72693194e-03, 1.38747785e-02, 1.32220024e-02,
          1.11002289e-02, 8.43574293e-03, -1.11948955e-03,
          -6.88848272e-03, -1.22209387e-02, -4.03907523e-03,
          3.10436427e-03, -8.54326226e-03, 1.61994733e-02,
          1.08257225e-02, 8.43695924e-03, -6.78025885e-03,
          -1.52519429e-02, 3.59017868e-03, 3.86634818e-03,
          4.71354369e-03, 5.40840556e-04, -4.80797002e-03,
          3.36222118e-04, 5.60521940e-03, 3.84657201e-03, 5.98518038e-03,
          4.72214166e-03, 2.00107438e-03, -7.32083712e-03,
          5.41795604e-03, 3.95380929e-02, 1.50715541e-02, 1.22832833e-02,
          5.10110054e-04, 5.47115877e-03, 2.52499920e-03, 2.36705970e-03,
          9.40104830e-04, -9.21341707e-04, -1.53349608e-03,
          5.02622593e-03, 8.73690471e-03, 5.14415419e-03, 1.01545928e-02,
          6.27568690e-03, 8.23573302e-03, 6.07252261e-03, 2.23136849e-05,
          -1.92336028e-03, 7.12260953e-04, 7.58883962e-03,
          1.70367211e-03, 9.38092545e-03, 0., 0., 0., -5.95879683e-05,
          -4.60564392e-03, -6.68564680e-05, 0., 0., 0., 9.69131012e-03,
          5.52820973e-03, 9.34420445e-04, -3.25076492e-03,
          1.76260539e-03, 6.83248788e-03, 1.03833713e-02, 6.55170903e-03,
          1.90668143e-02, 0., 0., 0., -7.22663099e-05, -4.77325264e-03,
          -8.38710039e-05, 0., 0., 0., 0., 0., 0., 0., 0., 0., 0., 0.,
          0., 0., 0., 0., 0., 0., 0., 0., 0., 0., 0., 0., 0., 0., 0., 0.,
          0., 0., 0., 0., 0., 0., 0., 0., 0., 0., 0., 0., 0., 0., 0., 0.,
          0., 0., 0., 0., 0., 0., 0., 0., 0., 0., 0., 0., 0., 0., 0., 0.,
          0., 0., 0., 0., 0., 0., 0., 0., 0., 0., 0., 0., 0., 0., 0., 0.,
          7.36050106e-06, 1.42390318e-05, 0., -1.35502469e-05,
          4.34697606e-04, 4.53844928e-04, 9.01990279e-04, 2.25982585e-04,
          5.23382951e-05, 2.01094430e-02, 1.21722547e-02, 3.91715579e-03,
          -7.87574565e-04, 2.85509252e-03, 8.22481979e-03,
          1.44225536e-02, 8.70166533e-03, 1.15855783e-02, 1.34846385e-04,
          1.46264400e-04, 8.02628074e-06, -4.47683524e-05,
          -5.65709593e-03, 6.52765884e-05, 1.98217356e-04,
          1.36007293e-04, 1.22092839e-04, 7.49351736e-03, 4.95293550e-03,
          1.05093920e-03, -1.90002483e-03, -1.28296502e-02,
          9.63067636e-04, 3.98538355e-03, 4.94802091e-03, 8.87694024e-03,
          1.42835751e-02, 1.15154022e-02, 3.87240876e-03,
          -4.03727638e-03, -1.28705213e-02, 1.50312914e-03,
          4.72208252e-03, 4.70497785e-03, 1.08931661e-02, 1.82545725e-02,
          1.45192472e-02, 1.67084225e-02, -1.02492021e-02,
          6.08833623e-04, -1.73775740e-02, 6.76869461e-03,
          1.83132458e-02, 1.89976860e-02, 4.33912082e-03, 4.11184598e-03,
          1.41760008e-03, -2.84491526e-03, -1.79427918e-02,
          -1.50595070e-03, 9.99000622e-04, 2.11910740e-03,
          2.80508748e-03, 1.02936849e-02, -6.30562718e-04,
          2.98228464e-04, 1.41784344e-02, 4.47134860e-02,
          -8.99710786e-03, 2.77489540e-03, 1.06877377e-02,
          1.04011456e-02, 1.49511974e-02, 4.73432941e-03, 5.69808902e-03,
          -4.71022259e-03, -7.74738193e-03, -1.45078986e-03,
          3.33188171e-03, 1.39659485e-02, 1.13610318e-02, 6.59748260e-03,
          -2.59220810e-03, -7.47912470e-03, -2.12216098e-02,
          -1.07203657e-03, 4.24001645e-03, -9.02346894e-03,
          1.38853407e-02, 1.20924283e-02, 7.61050871e-03,
          -3.51339160e-03, 5.22828370e-04, 3.25374422e-03,
          -1.13417869e-02, -6.23520743e-03, 4.70378145e-04,
          4.80089476e-03, 9.81738698e-03, -1.07836789e-02,
          -2.69444473e-02, -2.86653712e-02, -1.59253739e-02,
          -2.87923519e-03, -7.26351840e-03, -1.65677313e-02,
          5.77942748e-03, -4.93907882e-03, 2.49998309e-02,
          1.30482595e-02, 7.21694808e-03, 4.29987820e-04, 3.29223871e-02,
          4.40157577e-03, -7.62442080e-03, 9.45580006e-03,
          1.99987479e-02, 2.70059798e-02, 3.13200280e-02, 2.74088848e-02,
          -2.79382011e-03, -4.86730103e-04, -2.38104034e-02,
          -3.31900530e-02, -3.21269259e-02, 2.66398536e-03,
          4.37227031e-03, -1.40576120e-02, -1.31695364e-02,
          -8.66660010e-03, 1.13201914e-02, -7.90773518e-03,
          -1.79536622e-02, 3.06291529e-03, -4.41346923e-03,
          1.34900603e-02, 1.06462790e-02, 4.52375831e-03, 3.42538906e-03,
          1.81224309e-02, -1.32491309e-02, -3.46317925e-02,
          -3.64572741e-02, -2.44814833e-03, 3.53904478e-02,
          2.36106496e-02, 2.35895105e-02, 1.41577888e-02, 8.91689491e-03,
          -1.50232529e-02, -3.55467722e-02, -2.81704646e-02,
          1.80986878e-02, 3.04132365e-02, 6.79539656e-03, 1.47806294e-02,
          2.34801248e-02, 9.08328593e-03, -5.60566317e-03,
          -3.01106721e-02, -1.75999571e-02, 2.66764257e-02,
          2.01558806e-02, 1.59580261e-02, 1.91279314e-02, 1.67987105e-02,
          2.84471028e-02, -7.17322947e-03, -3.88513282e-02,
          -4.01544832e-02, 1.36113837e-02, 1.10495817e-02,
          -9.39955818e-04, 7.88129214e-03, 2.72138175e-02,
          2.05323901e-02, -4.10461565e-03, -5.70084937e-02,
          -4.14467044e-02, 3.75219132e-03, 2.11094357e-02,
          -2.65767216e-03, 7.82587659e-03, 2.03515552e-02,
          8.44408700e-04, -9.00586043e-03, -2.00533196e-02,
          4.85379889e-04, 3.76925385e-03, -5.00381878e-03,
          1.82349030e-02, 2.14026645e-02, 1.68562308e-02, 1.22434366e-03,
          5.35515696e-03, 2.29105167e-02, 1.19116381e-02,
          -4.17289149e-04, -1.97026669e-03, -1.01001849e-02,
          1.39800357e-02, 1.50731243e-02, -1.73397046e-02,
          -9.42838285e-03, -3.39672156e-02, -2.38183700e-02,
          -3.32171246e-02, -1.68138035e-02, 7.49391038e-03,
          2.38708407e-02, 3.48655996e-03, -8.09917785e-03,
          -2.26091184e-02, -5.46428096e-03, -1.62484229e-03,
          -1.51267247e-02, -1.26875350e-02, 1.48056885e-02,
          1.15374224e-02, 1.04554780e-02, -1.94877014e-03,
          5.87773276e-03, 1.84261594e-02, 7.52082700e-03,
          -2.38437345e-03, 4.94909473e-03, 1.27743371e-02,
          -4.57110023e-03, 1.62714422e-02, 2.80665513e-02,
          2.17152368e-02, 1.30701391e-02, 1.53837539e-02, 2.37058792e-02,
          -3.38980667e-02, -1.74982927e-03, 1.51162106e-03,
          -1.07427286e-02, -1.53633244e-02, -2.98405793e-02,
          -8.30779690e-03, 5.47967211e-04, -2.29334198e-02,
          -2.01715399e-02, -8.28804914e-03, -7.89755955e-03,
          -2.96002254e-03, 2.98179337e-04, -5.51327690e-03,
          7.91499857e-03, 1.72728319e-02, -1.33460306e-03,
          8.07443459e-04, 8.28671327e-04, -1.10901715e-02,
          -6.31169090e-03, 5.00766837e-05, 1.26846079e-02,
          1.65248439e-02, 1.88866742e-02, 1.41534563e-02, 1.03286235e-03,
          -8.75965692e-03, -1.34623945e-02, -7.24387169e-03,
          -1.08642178e-02, 6.96414383e-03, 3.61895077e-02,
          2.09284406e-02, -2.95842206e-03, -6.57452410e-03,
          -7.43941823e-03, -1.38656865e-03, -4.31032199e-03,
          -1.93110469e-03, 4.08987864e-04, 1.73323210e-02,
          1.66901723e-02, -1.05175301e-02, -6.82545034e-03,
          -1.18867615e-02, -9.78839491e-03, -2.95487116e-03,
          -2.72598094e-03, 4.41206532e-04, 1.45986415e-02,
          6.57476718e-03, -7.99888186e-03, 4.85507026e-03,
          -1.58075038e-02, -1.53886471e-02, -3.56471096e-03,
          -1.66057481e-03, 9.56213754e-03, 3.08868308e-02,
          1.41075393e-02, 2.32974673e-03, 7.54230656e-03,
          -2.70130001e-02, -1.64959207e-02, 2.67711421e-03,
          1.77094284e-02, 1.58998631e-02, 2.60074511e-02, 1.23312073e-02,
          7.79315084e-03, -6.45594392e-03, -2.96040196e-02,
          -2.68034153e-02, -6.40741410e-03, 1.85855292e-02,
          9.94029362e-03, 3.13323853e-03, -1.66452921e-03,
          -3.82233271e-03, 2.63152784e-03, -2.78528426e-02,
          -2.13580597e-02, 1.78471580e-03, 3.24116349e-02,
          2.02164147e-02, 1.92649607e-02, 9.18283686e-03,
          -2.35461956e-03, -4.70314221e-03, -2.35084854e-02,
          -1.25226500e-02, -8.25047551e-04, 9.26026516e-03,
          1.91486664e-02, 2.00061817e-02, 1.80514622e-02,
          -8.96627922e-03, -1.00520793e-02, -1.47204800e-02,
          -1.61667038e-02, 2.38248450e-03, 4.67446409e-02,
          2.10607201e-02, 1.79908834e-02, 1.21697821e-02,
          -8.70214682e-03, -1.86645556e-02, -2.89914627e-02,
          -3.05768736e-02, 7.81086925e-03, 2.70458106e-02,
          1.98555812e-02, 2.28612814e-02, 1.38566103e-02,
          -8.36925115e-03, -3.27671468e-02, -2.67971661e-02,
          -2.17917114e-02, 2.33174441e-03, 4.08774391e-02,
          1.25079099e-02, 1.30223744e-02, 9.25647561e-03,
          -1.71929840e-02, -2.11938545e-02, -1.61678996e-02,
          -2.43072379e-02, -3.30797071e-03, 4.52477224e-02,
          4.96956380e-03, -2.87828711e-03, -1.19126961e-02,
          -2.39266343e-02, 3.00280657e-03, 1.74696534e-03,
          -1.37737226e-02, 1.21876877e-02, 1.71678569e-02,
          3.40949302e-03, -5.26496115e-05, -4.15748109e-05,
          -2.48126104e-03, -3.08690444e-02, -2.28409618e-02,
          -2.50911005e-02, -6.29188819e-03, 2.32455805e-02,
          -2.20308453e-02, -7.26041570e-03, -8.87948461e-03,
          -3.61835323e-02, -1.17046184e-04, -4.88182483e-03,
          -4.85090865e-03, 4.05823626e-03, -2.20316136e-03,
          -1.45339230e-02, -6.10575685e-03, -3.37186805e-03,
          -5.25124371e-03, 1.30645679e-02, -6.27572474e-04,
          -1.29086757e-02, 5.80764888e-03, 6.36263238e-03,
          6.20053150e-03, 1.14885194e-03, 2.93171336e-03, 5.81776071e-03,
          4.89594834e-03, 2.27461872e-03, 1.17427134e-03,
          -9.83920836e-05, -2.93712271e-03, 7.52415834e-03,
          1.13951098e-02, 1.00927548e-02, 1.29915811e-02, 1.26012610e-02,
          -7.87338428e-03, -9.22092516e-03, -1.56861765e-03,
          3.83724421e-02, -8.17869417e-03, -3.91204515e-03,
          -2.10994878e-03, 6.61626575e-04, 4.54076100e-03,
          1.66334421e-03, 2.89141986e-04, -1.70748914e-03,
          -1.28088994e-02, -4.24956757e-04, 2.35395459e-03,
          2.94280471e-03, 3.01880063e-03, 8.92589334e-03, 1.76950789e-03,
          6.48216926e-04, -2.32613902e-03, 6.70977961e-03,
          8.14747810e-03, 1.18773337e-02, 1.28551936e-02, 1.91342812e-02,
          0., 0., 0., -7.20611861e-05, -3.69767752e-03, -6.39546997e-05,
          0., 0., 0., 4.94676782e-03, 1.87819987e-03, 2.07942026e-03,
          -4.21627366e-04, -9.08130687e-03, 3.40935861e-04,
          4.19610227e-03, 4.49499115e-03, 3.73579189e-03, 0., 0., 0.,
          -5.48548487e-05, -5.55021456e-03, -7.52033302e-05, 0., 0., 0.,
          0., 0., 0., 0., 0., 0., 0., 0., 0., 0., 0., 0., 0., 0., 0., 0.,
          0., 0., 0., 0., 0., 0., 0., 0., 0., 0., 0., 0., 0., 0., 0., 0.,
          0., 0., 0., 0., 0., 0., 0., 0., 0., 0., 0., 0., 0., 0., 0., 0.,
          0., 0., 0., 0., 0., 0., 0., 0., 0., 0., 0., 0., 0., 0., 0., 0.,
          0., 0., 0., 0., 0., 0., 0., 0., 1.31360910e-04, 1.39663520e-04,
          1.71935302e-04, 1.36689530e-04, -2.64265807e-03,
          1.77259848e-04, 0., 6.11944006e-06, 6.03103581e-05,
          5.47599792e-03, 4.10979660e-03, 3.96134984e-03, 1.29526760e-03,
          -7.07990839e-04, 2.39299843e-03, 7.50271545e-04,
          3.99198150e-03, 6.46344014e-03, 4.89678996e-06, 7.34048444e-06,
          2.38465407e-04, 1.83686891e-04, -8.09006102e-04,
          3.16329970e-04, 1.04952378e-04, 0., 0., 4.60403925e-03,
          6.27446780e-03, 9.29106772e-03, 4.40333877e-03, 8.88056774e-03,
          5.75539703e-03, 3.82974162e-03, 3.00362636e-03, 3.79861612e-03,
          3.51030030e-03, 4.13175300e-03, 3.11294524e-03,
          -8.57728650e-04, -1.27846682e-02, -1.00811105e-03,
          3.85584048e-04, 5.46752848e-03, 4.22887225e-03, 9.41459741e-03,
          7.54441088e-03, 1.86837162e-03, 1.04304552e-02, 4.56673391e-02,
          -9.31807794e-03, -2.99433526e-03, 1.32685388e-02,
          1.55105582e-02, 4.73064231e-03, 7.24049844e-03, 7.25570321e-03,
          2.13489495e-03, -4.42206580e-03, 1.22547324e-03,
          1.67833269e-03, 4.80429502e-03, 5.44316089e-03, 9.14780051e-03,
          1.40740303e-02, 7.46881263e-03, 2.89677852e-03, 2.80681811e-02,
          -8.78236443e-03, -1.31008914e-02, 1.40745929e-02,
          1.60595886e-02, 8.66233837e-03, 5.37410984e-03, 4.15288843e-03,
          5.55340946e-03, -1.01235253e-03, -6.93659624e-03,
          -3.47109768e-03, 3.69171239e-03, 1.11331902e-02,
          -6.13273541e-03, -9.66581982e-03, -4.44912910e-03,
          -1.76664907e-03, 1.52239921e-02, -9.43774078e-03,
          -1.38324089e-02, -1.82206486e-03, -8.88310745e-03,
          2.35193549e-03, 1.35418437e-02, 6.94787223e-03,
          -3.09374998e-03, 1.62778271e-03, -4.36029118e-03,
          -1.43212015e-02, -3.01345414e-03, 1.18325453e-03,
          -8.65594205e-03, 8.66194721e-03, -2.83345068e-03,
          -1.00587234e-02, 2.07206961e-02, -1.97267514e-02,
          -3.51570360e-02, -2.06156559e-02, -2.22687013e-02,
          -7.74687389e-03, -6.76252320e-03, 5.26735035e-04,
          -8.95627495e-03, 9.50877834e-03, -9.91603453e-03,
          -9.30931699e-03, -4.18050867e-03, -1.28236264e-02,
          3.20763513e-03, 8.52713827e-03, 1.54760657e-02, 5.58263622e-03,
          1.33994976e-02, -1.45883709e-02, -1.99603885e-02,
          -2.89583467e-02, 2.76446226e-04, -1.47594996e-02,
          -5.12900390e-03, -1.03804767e-02, -6.46270439e-03,
          2.76431050e-02, 5.07207634e-03, -4.30290401e-03,
          -1.53634390e-02, -1.84646156e-02, -9.13733430e-03,
          2.65209121e-03, 2.83059920e-03, 5.21093467e-03, 2.94237398e-02,
          2.01231856e-02, -6.07724069e-03, -8.55866075e-03,
          -1.69620372e-03, 1.05145387e-02, 2.05539912e-02,
          1.81676764e-02, 1.40933851e-02, 2.68918462e-02, 3.76595627e-03,
          -2.93689854e-02, -3.15389857e-02, 1.09825078e-02,
          -4.59810393e-03, 5.81756001e-03, 1.41490372e-02,
          1.80790350e-02, 2.65905038e-02, -6.16136659e-03,
          -5.57578988e-02, -4.98461314e-02, -2.68162806e-02,
          1.12608364e-02, 1.44148860e-02, 1.13088135e-02, 1.01286788e-02,
          3.08337156e-02, 1.79920942e-02, -6.19430514e-03,
          -5.50687918e-03, 1.51528986e-02, 1.84042249e-02,
          1.18240342e-02, 1.19404104e-02, 2.26091892e-02, 2.95453593e-02,
          -9.22228303e-03, -2.31737141e-02, -1.75256655e-02,
          -4.43573436e-03, -1.86169043e-03, -3.31502431e-03,
          2.01263614e-02, 2.23899633e-02, 5.30818012e-03,
          -8.87022633e-03, -3.78143638e-02, -2.58142669e-02,
          -2.74500307e-02, -6.14070473e-03, 1.09091857e-02,
          2.80854143e-02, 2.32558511e-02, 1.74276915e-03,
          -1.18627418e-02, -1.23509429e-02, -3.23397061e-03,
          -1.32593028e-02, 1.29702901e-02, 1.43351767e-03,
          1.92988068e-02, 2.54165716e-02, 2.25416962e-02,
          -1.75102670e-02, -2.13970654e-02, -1.23626133e-02,
          -1.17776943e-02, -5.77921700e-03, 1.11553548e-02,
          2.01019496e-02, 1.89797562e-02, 3.02901696e-02,
          -1.15219541e-02, 6.31493400e-04, -4.80565475e-03,
          -5.58431866e-03, -2.18939558e-02, 1.09814499e-02,
          3.15615186e-03, 1.76355068e-03, -9.30375420e-03,
          -1.58781204e-02, -8.01574811e-03, -2.35142047e-03,
          -1.52044520e-02, -4.47220542e-03, 1.00312652e-02,
          5.20865154e-03, 2.71479553e-03, 1.13952709e-02, 8.21072981e-03,
          1.96162201e-02, 1.42389750e-02, -6.94650086e-03,
          -1.81059018e-02, 7.40762521e-03, 6.53479248e-03,
          -5.16875880e-03, 3.14076953e-02, -4.00609104e-03,
          8.67655734e-04, -1.88256595e-02, -1.22282784e-02,
          4.94099408e-03, 2.52876878e-02, 1.29983258e-02,
          -1.35970209e-02, 2.92811841e-02, 1.96023323e-02,
          1.06631629e-02, -1.41976383e-02, -5.35188615e-03,
          -1.24954083e-03, 3.24424845e-03, 6.63449196e-03,
          -5.18567394e-03, -1.01919193e-02, -1.78804796e-03,
          1.18745938e-02, 9.92889050e-03, -1.11418590e-02,
          8.85754265e-03, -1.01847500e-02, -1.36756347e-02,
          -1.03358813e-02, -1.49075435e-02, -8.20727553e-04,
          9.98751726e-03, 1.01163825e-02, 7.20662763e-03, 1.14685064e-02,
          2.38198861e-02, 4.02030349e-03, -2.77662147e-02,
          -5.14363544e-03, 3.14970443e-04, 8.54900200e-03,
          -6.33759482e-04, 2.22494069e-04, 2.41186470e-02,
          1.11678420e-02, -8.81571043e-03, -1.80469733e-02,
          -9.95859783e-03, 6.20895531e-03, 2.41994336e-02,
          1.71231106e-02, 1.43534634e-02, -1.03040449e-02,
          -3.04020513e-02, -3.82468328e-02, -5.16621210e-03,
          -9.82961524e-03, 9.89874592e-04, -2.82415026e-03,
          2.23710202e-03, 5.45276853e-04, -1.13348933e-02,
          -2.16901489e-02, -2.66366526e-02, 8.98699835e-03,
          3.85818556e-02, 1.65006854e-02, 1.36501370e-02, 9.39278398e-03,
          -5.85874729e-03, 2.52089091e-02, -9.40014783e-04,
          -2.63290945e-02, -1.16670728e-02, -1.05639603e-02,
          5.53795649e-03, 2.46777460e-02, 1.57590490e-02, 1.23204822e-02,
          2.65634451e-02, 5.76180639e-03, -1.54158268e-02,
          7.39648473e-03, 2.11391337e-02, 1.21634929e-02, 1.96852572e-02,
          2.12923195e-02, 2.13869177e-02, -4.30545360e-02,
          -3.55630592e-02, -3.87917086e-02, 8.64018686e-03,
          4.05134633e-02, 1.44326966e-02, 1.55186271e-02, 1.05073787e-02,
          -2.23034658e-02, -4.62659076e-02, -3.23735736e-02,
          -3.69827487e-02, 1.95144303e-03, 1.67851821e-02,
          1.85680354e-03, 1.36971856e-02, 8.38266686e-03,
          -2.72040591e-02, -5.08164940e-03, -2.22097598e-02,
          -1.31785469e-02, 2.19798423e-02, 4.06500511e-02,
          1.52735850e-02, 1.41602224e-02, 1.94118042e-02, 1.05711753e-02,
          -3.80021962e-03, -9.56087187e-03, -1.11581963e-02,
          1.59264375e-02, 2.21311618e-02, 1.44309662e-02, 1.57515071e-02,
          1.43976770e-02, 1.27534866e-02, -2.46395543e-02,
          -1.03092464e-02, -1.99855249e-02, -9.43525787e-03,
          7.64822727e-03, -2.14003511e-02, -2.44578143e-04,
          7.54004437e-03, -2.10953131e-02, 3.08259134e-03,
          -2.78385147e-03, 2.15297635e-03, -6.02124550e-04,
          -1.81004889e-02, -9.54569876e-03, -9.76983792e-05,
          2.87594600e-03, 2.02330877e-03, -4.34623798e-03,
          -2.09036400e-03, -1.31261991e-02, -3.31621501e-03,
          5.31343557e-03, 4.28327359e-03, 3.99806397e-03, 1.55270090e-02,
          2.71941442e-03, 6.47656270e-04, -9.88235348e-04,
          -2.65926286e-03, -5.81698259e-03, -1.76832881e-02,
          1.08923884e-02, 8.01373366e-03, 8.18821415e-03, 4.46997257e-03,
          6.02486124e-03, -1.79310958e-03, 2.12570769e-03,
          1.18896679e-03, 2.78604385e-02, -2.12170082e-04,
          1.89751119e-03, -1.51442620e-03, -2.42391790e-04,
          1.04216151e-02, 4.38197982e-03, 2.15690793e-03,
          -2.13632220e-03, -1.29670687e-02, 7.65939476e-04,
          1.95627171e-03, 6.32062205e-04, 3.17280204e-03, 4.28214576e-03,
          9.33438656e-04, 2.03088348e-04, -8.48873053e-03,
          2.42375247e-02, 1.15619842e-02, 1.11499839e-02, 3.10779153e-03,
          -8.33342783e-03, 1.40082417e-02, 4.15320229e-03,
          1.06566853e-03, -7.19815085e-04, -9.57325939e-03,
          4.53021086e-04, 4.97673312e-03, 1.77792169e-03, 6.52147038e-03,
          1.59219783e-02, 6.15501590e-03, 5.82913030e-03,
          -3.41060833e-04, -9.67825123e-04, 1.91381935e-03,
          2.99524120e-03, 3.28463688e-03, 3.91446566e-03, 0., 0., 0.,
          -7.61202100e-05, -4.08971636e-03, -6.45280597e-05, 0., 0., 0.,
          2.22759843e-02, 6.26859907e-03, 3.91340768e-03,
          -4.15742443e-06, -8.80171836e-04, 1.65482820e-03,
          4.04626317e-03, 3.18222307e-03, 6.05669199e-03, 0., 0., 0.,
          -8.17155815e-05, -5.15367649e-03, -7.26320941e-05, 0., 0., 0.,
          0., 0., 0., 0., 0., 0., 0., 0., 0., 0., 0., 0., 0., 0., 0., 0.,
          0., 0., 0., 0., 0., 0., 0., 0., 0., 0., 0., 0., 0., 0., 0., 0.,
          0., 0., 0., 0. ]
   uncompressed_sv_total: 21
   uncompressed_support_vectors:
      - [ 0., 0., 0., 0., 0., 0., 0., 0., 0., 0., 0., 0., 0., 0., 0., 0.,
          0., 0., 0., 0., 0., 0., 0., 0., 0., 0., 0., 0., 0., 0., 0., 0.,
          0., 0., 0., 0., 0., 0., 0., 0., 0., 0., 0., 0., 0., 0., 0., 0.,
          0., 0., 0., 0., 0., 0., 0., 0., 0., 0., 0., 0., 0., 0., 0., 0.,
          0., 0., 0., 0., 0., 0., 0., 0., 0., 0., 0., 0., 0., 0., 0., 0.,
          0., 3.71148344e-04, 1.76208350e-03, 1.81935995e-03,
          1.42226648e-02, 7.04218447e-01, 8.91183037e-03, 2.13495898e-03,
          2.77835457e-03, 6.26553083e-04, 0., 0., 0., 0., 0., 0., 0., 0.,
          0., 1.29604561e-03, 1.89489964e-03, 1.22211059e-03,
          2.60617360e-02, 7.04218447e-01, 1.12358462e-02, 2.78791669e-03,
          9.64298204e-04, 1.05545239e-03, 5.99147147e-03, 8.28600861e-03,
          5.78300375e-03, 1.93388816e-02, 6.15813673e-01, 1.27469804e-02,
          6.26477273e-03, 9.41754971e-03, 5.67587512e-03, 1.85293648e-02,
          1.26077766e-02, 1.45817390e-02, 1.19285053e-02, 2.82159418e-01,
          7.71868182e-03, 1.02826916e-02, 1.23224370e-02, 1.56585947e-02,
          9.26431641e-03, 7.20392400e-03, 5.29375952e-03, 3.05842012e-02,
          6.15813673e-01, 1.96598209e-02, 8.15764721e-03, 5.08146593e-03,
          7.57831847e-03, 2.87777819e-02, 2.33997609e-02, 1.84071288e-02,
          1.61947198e-02, 3.85090679e-01, 1.84420552e-02, 1.38769243e-02,
          1.02181211e-02, 3.13733146e-02, 8.58387537e-03, 4.02471516e-03,
          1.02403183e-02, 2.56042019e-03, 1.00232568e-02, 1.99752953e-03,
          2.67629279e-03, 2.49328231e-03, 7.98368547e-03, 6.91450015e-02,
          1.32954761e-01, 4.44585890e-01, 3.00174821e-02, 1.63506474e-02,
          1.09831700e-02, 1.36736967e-02, 5.73943276e-03, 4.67203744e-02,
          1.04715778e-02, 2.23457098e-01, 2.98370153e-01, 2.21329648e-02,
          1.05932280e-01, 4.56994772e-02, 1.28804883e-02, 4.72945161e-03,
          2.46328507e-02, 8.68749246e-02, 5.19603014e-01, 5.19603014e-01,
          1.21995993e-01, 1.74630061e-01, 1.13868393e-01, 3.92262638e-02,
          1.33231021e-02, 9.68312025e-02, 8.25214088e-02, 1.36574656e-01,
          3.04584920e-01, 6.23763055e-02, 3.30321863e-03, 3.20160994e-03,
          2.13793181e-02, 8.05354789e-02, 8.12597498e-02, 1.42021596e-01,
          2.05540478e-01, 3.04584920e-01, 2.39619970e-01, 5.76440571e-03,
          3.98816628e-04, 3.43316793e-02, 2.41097510e-01, 3.04584920e-01,
          8.53536204e-02, 3.04584920e-01, 3.04584920e-01, 8.21122229e-02,
          3.75369042e-02, 2.14189887e-02, 2.16555428e-02, 6.51964843e-02,
          1.13488883e-01, 1.01915210e-01, 1.71613187e-01, 3.04584920e-01,
          1.76291183e-01, 7.48305246e-02, 3.49860117e-02, 2.32507307e-02,
          1.46768391e-01, 2.91398346e-01, 2.86056966e-01, 1.88170880e-01,
          2.95931309e-01, 2.81898081e-01, 9.18667670e-03, 9.94030619e-04,
          3.62244360e-02, 1.99261546e-01, 2.95931309e-01, 2.95931309e-01,
          1.07552893e-01, 1.99876249e-01, 7.52987042e-02, 1.20346667e-02,
          2.75222491e-03, 5.07573411e-02, 1.15001313e-01, 2.95931309e-01,
          9.55168605e-02, 5.60188256e-02, 1.66420937e-01, 1.40336499e-01,
          9.25839245e-02, 2.96602547e-02, 1.05897188e-02, 8.21694583e-02,
          2.73300737e-01, 1.99183390e-01, 4.13858965e-02, 6.34405538e-02,
          4.43690233e-02, 2.21611708e-01, 3.57157402e-02, 1.30202295e-02,
          2.79349834e-02, 2.93965101e-01, 3.12449783e-01, 1.39066353e-01,
          2.69891303e-02, 6.24012155e-03, 1.03963008e-02, 2.62359530e-03,
          2.26826239e-02, 1.24067977e-01, 3.12449783e-01, 3.12449783e-01,
          2.46710286e-01, 1.39934197e-02, 8.63210764e-03, 3.75675857e-02,
          1.68389771e-02, 1.96500674e-01, 3.12449783e-01, 3.12449783e-01,
          1.97299197e-01, 3.69210429e-02, 2.51768436e-02, 2.29529198e-02,
          2.05588207e-01, 3.99089232e-02, 1.72346774e-02, 3.29831541e-02,
          2.65921891e-01, 2.43050784e-01, 2.29170136e-02, 7.48733152e-03,
          1.46738421e-02, 2.72808105e-01, 1.81000903e-02, 4.35743779e-02,
          1.39235839e-01, 2.40548998e-01, 2.77299196e-01, 8.49936381e-02,
          1.31777665e-02, 4.83309338e-03, 3.03355604e-02, 2.61873435e-02,
          2.80897439e-01, 2.89781630e-01, 2.56457448e-01, 2.17903405e-01,
          3.87066156e-02, 7.92024285e-03, 2.07165368e-02, 1.98196396e-02,
          3.61551605e-02, 2.89781630e-01, 2.89781630e-01, 1.87592164e-01,
          1.95351869e-01, 1.22561194e-02, 6.46775216e-03, 1.55840246e-02,
          2.00405672e-01, 2.13639718e-02, 1.21079423e-01, 2.35004500e-01,
          1.96142897e-01, 1.39781058e-01, 2.09364425e-02, 1.07239531e-02,
          4.04572263e-02, 9.48495865e-02, 7.67001435e-02, 2.89781630e-01,
          2.89781630e-01, 1.89987168e-01, 1.33957982e-01, 4.16805781e-02,
          3.80981807e-03, 2.82152444e-02, 1.71406679e-02, 2.15056241e-02,
          3.44725221e-01, 3.44725221e-01, 1.37106493e-01, 4.54637855e-02,
          2.45541856e-02, 3.78298340e-03, 1.12682451e-02, 9.24282707e-03,
          1.74035337e-02, 2.55032182e-01, 1.63416967e-01, 1.06887177e-01,
          1.19699515e-01, 3.09773218e-02, 1.89280864e-02, 3.64499316e-02,
          8.99843797e-02, 2.18453974e-01, 3.44725221e-01, 3.44725221e-01,
          1.52727410e-01, 5.18318601e-02, 2.06851196e-02, 2.06995737e-02,
          8.27784836e-03, 4.13039364e-02, 1.72010511e-01, 3.44725221e-01,
          3.44725221e-01, 7.81058297e-02, 6.50144815e-02, 2.53550503e-02,
          1.74318198e-02, 1.98200028e-02, 3.42532583e-02, 5.99242933e-02,
          3.13582897e-01, 2.57296622e-01, 1.68334201e-01, 2.20559295e-02,
          1.02136694e-02, 2.25133523e-02, 1.85763184e-02, 4.86305989e-02,
          9.15936008e-02, 1.17055379e-01, 1.78401873e-01, 9.35254171e-02,
          6.92562982e-02, 1.89085603e-02, 1.99085437e-02, 1.54107921e-02,
          6.98059052e-02, 1.72658101e-01, 3.87502342e-01, 3.87502342e-01,
          1.87735379e-01, 2.26358343e-02, 6.02429826e-03, 1.49999866e-02,
          2.24993527e-02, 5.36171123e-02, 1.69891834e-01, 3.87502342e-01,
          3.78087997e-01, 1.55865699e-01, 2.10056268e-02, 1.14368061e-02,
          2.68304516e-02, 1.31995723e-01, 2.08718881e-01, 1.85579434e-01,
          2.14078873e-01, 2.86254793e-01, 1.23490423e-01, 1.23086274e-02,
          8.22094548e-03, 2.11560559e-02, 2.03752831e-01, 3.69130135e-01,
          7.68715665e-02, 9.87515897e-02, 1.02254972e-01, 3.17397229e-02,
          4.46989425e-02, 1.83178317e-02, 3.50426063e-02, 9.15669277e-02,
          1.35009453e-01, 2.15040267e-01, 3.69130135e-01, 3.69130135e-01,
          2.54480511e-01, 2.46938970e-02, 2.98799258e-02, 4.32569422e-02,
          8.08022767e-02, 2.50976175e-01, 8.18594471e-02, 1.95862934e-01,
          1.21685334e-01, 6.75006807e-02, 6.98039681e-03, 9.67507251e-03,
          2.50889547e-02, 2.39457041e-01, 8.37966383e-01, 3.53249386e-02,
          3.64043601e-02, 1.78033151e-02, 6.12121820e-03, 0., 0., 0., 0.,
          0., 0., 0., 0., 0., 1.56551674e-02, 3.55818197e-02,
          4.91472967e-02, 7.09667131e-02, 4.57609057e-01, 4.29244116e-02,
          7.44013339e-02, 2.47319695e-02, 1.53845819e-02, 0., 0., 0., 0.,
          0., 0., 0., 0., 0., 0., 0., 0., 0., 0., 0., 0., 0., 0., 0., 0.,
          0., 0., 0., 0., 0., 0., 0., 0., 0., 0., 0., 0., 0., 0., 0., 0.,
          0., 0., 0., 0., 0., 0., 0., 0., 0., 0., 0., 0., 0., 0., 0., 0.,
          0., 0., 0., 0., 0., 0., 0., 0., 0., 0., 0., 0., 0., 0., 0., 0.,
          0., 0., 0., 0., 0., 0., 0., 0., 0., 0., 0., 0., 0., 0., 0., 0.,
          0., 0., 0., 0., 0., 0., 0., 0., 0., 0., 0., 0., 0., 0., 0., 0.,
          0., 0., 0., 0., 0., 0., 0., 0., 0., 0., 0., 0., 0., 0., 0., 0.,
          0., 0., 0., 0., 0., 0., 0., 0., 0., 0., 0., 0., 0., 0., 0., 0.,
          0., 0., 0., 0., 0., 0., 0., 0., 0., 0., 0., 0., 0., 0., 0., 0.,
          0., 0., 0., 0., 0., 0., 0., 0., 0., 0., 0., 0., 0., 0.,
          1.36258313e-03, 5.14724641e-04, 6.84163184e-04, 1.86497699e-02,
          7.03849018e-01, 1.17494483e-02, 2.55641108e-03, 6.52760791e-04,
          1.20243477e-03, 0., 0., 0., 0., 0., 0., 0., 0., 0.,
          3.51468124e-03, 4.73677227e-03, 2.56436062e-03, 3.88111323e-02,
          7.03849018e-01, 1.04598282e-02, 8.82653170e-04, 8.97985534e-04,
          3.41070839e-03, 3.98195907e-03, 1.31242513e-03, 1.55792595e-03,
          1.02167502e-02, 3.76589179e-01, 1.08547956e-02, 3.85114900e-03,
          2.29562540e-03, 4.18903679e-03, 1.28943725e-02, 7.52742514e-02,
          1.16263762e-01, 7.70109147e-02, 2.48561710e-01, 4.68651950e-02,
          5.43085253e-03, 4.49015805e-03, 2.13907138e-02, 6.63990201e-03,
          1.06473425e-02, 5.79181360e-03, 2.37191692e-02, 3.76589179e-01,
          1.12925302e-02, 1.55662466e-03, 4.28809365e-03, 6.76468061e-03,
          2.08433513e-02, 3.76589179e-01, 2.92383879e-01, 3.24424744e-01,
          3.76589179e-01, 3.76589179e-01, 6.69420362e-02, 7.41305342e-03,
          2.08752900e-02, 3.45243514e-03, 2.15738550e-01, 2.69963741e-01,
          5.95715567e-02, 1.30862936e-01, 9.60588977e-02, 1.25550944e-02,
          9.58031102e-04, 1.02005107e-02, 2.38502044e-02, 2.80100197e-01,
          2.80100197e-01, 9.50489789e-02, 1.65990889e-01, 1.49669424e-01,
          3.42415534e-02, 6.32797880e-03, 1.53007377e-02, 1.11382259e-02,
          2.80100197e-01, 2.80100197e-01, 1.93820328e-01, 2.80100197e-01,
          2.58498758e-01, 4.56508212e-02, 4.30886546e-04, 5.62344026e-03,
          3.71654816e-02, 2.80100197e-01, 2.80100197e-01, 1.96480155e-01,
          2.20516056e-01, 1.96341172e-01, 5.78257740e-02, 1.24008600e-02,
          1.08139524e-02, 1.06385589e-01, 2.94690460e-01, 2.94690460e-01,
          1.24277830e-01, 2.13188872e-01, 1.07934326e-01, 7.88275674e-02,
          4.20511626e-02, 1.18813172e-01, 1.50401354e-01, 8.27993453e-02,
          2.01664478e-01, 7.61756301e-02, 2.94690460e-01, 1.65361315e-01,
          4.56910916e-02, 5.78562394e-02, 2.94690460e-01, 1.78484738e-01,
          1.18369527e-01, 1.97451711e-01, 2.05401301e-01, 2.70468891e-01,
          1.54602453e-01, 1.08549923e-01, 6.47427291e-02, 1.36504799e-01,
          1.58248708e-01, 1.62028298e-02, 1.91523936e-02, 6.64923340e-02,
          2.58594722e-01, 1.33025497e-01, 4.05296311e-02, 5.87965734e-02,
          2.37758175e-01, 1.30066440e-01, 2.73511354e-02, 3.91202457e-02,
          4.89322767e-02, 3.21940631e-01, 1.37331203e-01, 7.88717065e-03,
          3.12668905e-02, 2.31627777e-01, 3.42297584e-01, 7.60615841e-02,
          4.44437489e-02, 8.88937414e-02, 3.42297584e-01, 1.87222406e-01,
          4.88114282e-02, 4.46566455e-02, 3.42297584e-01, 6.48852661e-02,
          7.74055952e-03, 9.45440680e-03, 1.65733788e-02, 1.61557972e-01,
          7.27333874e-02, 5.56811690e-03, 1.86337475e-02, 1.04791552e-01,
          3.22722763e-01, 6.95234984e-02, 3.53573225e-02, 6.57574087e-02,
          3.42297584e-01, 1.16421670e-01, 3.24586630e-02, 2.17050053e-02,
          3.11463624e-01, 3.38585675e-01, 9.35848653e-02, 3.15581709e-02,
          8.26031417e-02, 3.38585675e-01, 2.09272623e-01, 7.88667426e-02,
          3.37536037e-02, 3.38585675e-01, 1.88304171e-01, 1.75493006e-02,
          6.89621968e-03, 1.63654145e-02, 3.38585675e-01, 4.36104238e-02,
          2.69977059e-02, 1.67586692e-02, 2.17599660e-01, 2.92588472e-01,
          1.02605738e-01, 2.87063234e-02, 7.40885213e-02, 3.38585675e-01,
          1.11793689e-01, 5.45242243e-02, 2.34210715e-02, 3.34020466e-01,
          1.20754339e-01, 5.30349351e-02, 7.05189584e-03, 7.91895576e-03,
          1.07377470e-01, 1.94310620e-02, 2.78449729e-02, 1.48928305e-02,
          9.42953750e-02, 2.04447970e-01, 1.22767054e-02, 1.23831658e-02,
          4.87525910e-02, 2.71823108e-01, 3.15635726e-02, 4.52239215e-02,
          4.19643894e-02, 2.24000216e-01, 2.71823108e-01, 2.74347495e-02,
          5.25172241e-02, 1.70349434e-01, 2.71823108e-01, 1.97526097e-01,
          2.71823108e-01, 2.71823108e-01, 2.71823108e-01, 1.60983771e-01,
          5.38846701e-02, 1.82361025e-02, 5.14347404e-02, 1.87158391e-01,
          2.74223387e-02, 3.46509032e-02, 4.90130223e-02, 1.52197793e-01,
          2.66387373e-01, 7.29456544e-02, 1.21969730e-01, 1.58953920e-01,
          2.71823108e-01, 7.65626729e-02, 9.92359519e-02, 9.32520479e-02,
          2.71823108e-01, 9.60177705e-02, 8.38075764e-03, 2.46602409e-02,
          4.78469059e-02, 1.68381393e-01, 2.61336863e-01, 2.90395617e-01,
          2.88051695e-01, 1.21007793e-01, 1.64893325e-02, 6.06342498e-03,
          1.63860191e-02, 2.36758702e-02, 1.31219536e-01, 2.90395617e-01,
          2.90395617e-01, 2.80721605e-01, 1.38554182e-02, 9.57290977e-02,
          1.08393896e-02, 3.82691063e-02, 6.18206970e-02, 1.96071118e-01,
          1.05936252e-01, 1.77464262e-01, 8.18829611e-02, 9.81717408e-02,
          7.45415092e-02, 2.78089824e-03, 7.15379268e-02, 1.11839734e-01,
          2.90395617e-01, 2.90395617e-01, 2.90395617e-01, 2.16778561e-01,
          7.11428672e-02, 1.18963849e-02, 4.61932411e-03, 1.28468638e-02,
          1.43097276e-02, 1.07547753e-01, 2.46822864e-01, 2.95864314e-01,
          2.75880069e-01, 1.78769864e-02, 4.87907790e-03, 1.53084414e-03,
          8.96385405e-03, 5.42943319e-03, 5.76744638e-02, 1.86466277e-01,
          2.95864314e-01, 2.21669108e-01, 3.14630345e-02, 4.40343432e-02,
          3.98095418e-03, 9.11715254e-02, 9.86351669e-02, 2.95864314e-01,
          2.95864314e-01, 2.95864314e-01, 2.15587050e-01, 6.34833351e-02,
          2.32973602e-03, 2.97301682e-03, 1.97043549e-02, 2.27202307e-02,
          1.80765882e-01, 2.95864314e-01, 2.95864314e-01, 2.05609813e-01,
          1.04885632e-02, 1.87375117e-02, 4.18614270e-03, 7.38221966e-03,
          2.73841973e-02, 9.86384824e-02, 2.49075115e-01, 3.64313155e-01,
          2.40493983e-01, 9.06687304e-02, 1.49100879e-02, 6.72507379e-03,
          7.68823130e-03, 2.15517543e-02, 1.15419984e-01, 8.08828026e-02,
          1.44549027e-01, 4.84155975e-02, 3.68061960e-02, 7.81162875e-03,
          1.86523225e-03, 9.02197510e-03, 4.03238386e-02, 3.07597071e-01,
          3.64313155e-01, 3.64313155e-01, 3.18216532e-01, 1.93204451e-02,
          5.05861221e-03, 1.90326944e-04, 7.22577272e-04, 2.98941508e-02,
          2.80030578e-01, 2.58689582e-01, 2.59399503e-01, 4.70645465e-02,
          1.25500783e-02, 2.14019250e-02, 1.42557463e-02, 1.40052717e-02,
          8.54099728e-03, 3.52163196e-01, 1.08291782e-01, 1.23908684e-01,
          1.31835360e-02, 2.88898963e-02, 0., 0., 0., 0., 0., 0., 0., 0.,
          0., 4.78660315e-03, 0., 0., 4.01805602e-02, 8.45333397e-01,
          2.97558457e-01, 1.78304419e-01, 7.23617803e-03, 1.52625339e-02,
          0., 0., 0., 0., 0., 0., 0., 0., 0., 0., 0., 0., 0., 0., 0., 0.,
          0., 0., 0., 0., 0., 0., 0., 0., 0., 0., 0., 0., 0., 0., 0., 0.,
          0., 0., 0., 0., 0., 0., 0., 0., 0., 0., 0., 0., 0., 0., 0., 0.,
          0., 0., 0., 0., 0., 0., 0., 0., 0., 0., 0., 0., 0., 0., 0., 0.,
          0., 0., 0., 0., 0., 0., 0., 0., 0., 0., 0., 0., 0., 0., 0., 0.,
          0., 0., 0., 0., 0., 0., 0., 0., 0., 0., 0., 0., 0., 0., 0., 0.,
          0., 0., 0., 0., 0., 0., 0., 0., 0., 0., 0., 0., 0., 0., 0., 0.,
          0., 0., 0., 0., 0., 0., 0., 0., 0., 0., 0., 0., 0., 0., 0., 0.,
          0., 0., 0., 0., 0., 0., 0., 0., 0., 0., 0., 0., 0., 0., 0., 0.,
          0., 0., 0., 0., 0., 0., 0., 0., 0., 0., 0., 0., 0., 0., 0., 0.,
          0., 0., 6.04929402e-02, 1.91684533e-02, 7.15656625e-03,
          8.08210149e-02, 5.36567867e-01, 3.02772988e-02, 8.13551620e-02,
          5.03682233e-02, 8.10593460e-03, 0., 0., 0., 0., 0., 0., 0., 0.,
          0., 3.17784220e-01, 1.36696294e-01, 1.25009835e-01,
          1.32263526e-01, 5.36567867e-01, 1.18485563e-01, 3.41008037e-01,
          3.08396220e-01, 1.40911460e-01, 4.06586863e-02, 1.82249863e-02,
          1.10105975e-02, 2.60576643e-02, 2.67697513e-01, 1.87912323e-02,
          2.79235430e-02, 1.89770795e-02, 1.67659633e-02, 1.07981533e-01,
          2.87965447e-01, 1.33366585e-01, 1.08264275e-01, 2.87965447e-01,
          2.87965447e-01, 7.34554604e-02, 2.63026915e-02, 2.79690549e-02,
          1.47892714e-01, 7.78069869e-02, 5.29535078e-02, 7.04357177e-02,
          2.69112408e-01, 1.24538422e-01, 1.43229082e-01, 1.07854754e-01,
          9.72404853e-02, 2.58843362e-01, 2.87965447e-01, 1.43531561e-01,
          1.95040733e-01, 2.87965447e-01, 2.87965447e-01, 2.17491224e-01,
          1.43566757e-01, 1.28597364e-01, 7.40164816e-02, 2.84839183e-01,
          1.96669623e-01, 1.80114940e-01, 2.84839183e-01, 2.84839183e-01,
          9.73147303e-02, 1.13419816e-02, 6.65630586e-03, 6.08010627e-02,
          1.98448613e-01, 1.36605665e-01, 2.02753767e-01, 2.78034091e-01,
          1.46757603e-01, 9.89378318e-02, 4.41551693e-02, 3.47846001e-02,
          1.40444517e-01, 2.84839183e-01, 9.93381664e-02, 1.59433484e-01,
          2.84839183e-01, 2.84839183e-01, 1.19299635e-01, 5.52170463e-02,
          2.80222334e-02, 8.27118829e-02, 1.13065228e-01, 3.21754999e-02,
          1.18940227e-01, 2.84839183e-01, 9.28385034e-02, 7.47212246e-02,
          6.69016093e-02, 4.21531387e-02, 2.42264345e-01, 8.45389664e-02,
          3.82684171e-02, 2.07546681e-01, 2.50299722e-01, 2.21625313e-01,
          1.02604561e-01, 1.25250682e-01, 2.37394378e-01, 2.24492073e-01,
          8.19179937e-02, 6.82409573e-03, 1.15404166e-01, 2.50299722e-01,
          1.87323645e-01, 1.74634159e-02, 7.65202343e-02, 2.12647125e-01,
          2.13826805e-01, 9.22253206e-02, 1.20370369e-02, 9.27010849e-02,
          2.50299722e-01, 1.65054217e-01, 6.85791969e-02, 1.21840782e-01,
          2.49383956e-01, 2.30812699e-01, 8.11925605e-02, 6.60387939e-03,
          7.65161663e-02, 2.50299722e-01, 2.04484731e-01, 2.78672930e-02,
          7.02453405e-02, 2.50299722e-01, 1.11056216e-01, 4.84736376e-02,
          1.52381863e-02, 4.04071435e-02, 1.76477060e-01, 8.75904188e-02,
          9.58150066e-03, 1.90928066e-03, 7.15645850e-02, 8.34570453e-02,
          2.37202346e-02, 1.64497346e-02, 2.27294024e-02, 3.62850875e-02,
          2.17383318e-02, 9.78111289e-03, 8.36214703e-03, 3.48112434e-02,
          3.37030023e-01, 6.31095842e-02, 4.86059301e-02, 1.45705476e-01,
          3.37030023e-01, 3.37030023e-01, 1.29350290e-01, 2.91824192e-02,
          3.37030023e-01, 3.37030023e-01, 7.16232881e-02, 6.34470508e-02,
          2.19040766e-01, 3.37030023e-01, 1.45190775e-01, 7.15624392e-02,
          3.08334418e-02, 3.37030023e-01, 4.49103042e-02, 4.25799973e-02,
          2.34219134e-02, 1.97664276e-02, 6.85797334e-02, 2.91657057e-02,
          1.49358613e-02, 4.17943113e-03, 1.25167361e-02, 2.12007120e-01,
          1.44402891e-01, 8.35005939e-02, 3.28485407e-02, 1.41108617e-01,
          9.17527527e-02, 1.85721353e-01, 4.48469669e-02, 1.17430717e-01,
          1.20006971e-01, 2.52760947e-01, 2.07827389e-01, 1.35646194e-01,
          2.75368631e-01, 1.44163549e-01, 4.19566445e-02, 2.39418168e-02,
          1.31896481e-01, 2.80008376e-01, 2.80008376e-01, 2.80008376e-01,
          2.08391085e-01, 2.80008376e-01, 2.80008376e-01, 2.80008376e-01,
          1.91650093e-01, 1.64922506e-01, 1.70806155e-01, 7.44132996e-02,
          4.04711738e-02, 2.46733446e-02, 1.05377130e-01, 9.03676823e-02,
          2.64275044e-01, 8.85378271e-02, 1.41568318e-01, 9.80307907e-02,
          2.48684660e-02, 3.32496576e-02, 3.14138159e-02, 1.66934818e-01,
          5.09458408e-02, 8.97245854e-02, 3.94591205e-02, 9.29410979e-02,
          2.61797637e-01, 1.98301241e-01, 2.64275044e-01, 2.39372820e-01,
          2.64275044e-01, 2.50926614e-01, 2.64275044e-01, 2.64275044e-01,
          2.33326986e-01, 1.45211056e-01, 7.37006664e-02, 1.01239391e-01,
          1.51856661e-01, 2.64275044e-01, 1.70174107e-01, 1.36459008e-01,
          1.27563313e-01, 1.64089188e-01, 1.64366066e-01, 1.15269516e-02,
          2.34660599e-02, 4.46907133e-02, 2.78581440e-01, 3.05712596e-02,
          3.14795859e-02, 1.26998555e-02, 1.33408993e-01, 2.75754154e-01,
          9.30052157e-03, 1.55776143e-01, 1.44350097e-01, 2.95389771e-01,
          1.43207178e-01, 2.95389771e-01, 1.01478390e-01, 2.35482454e-01,
          2.23229423e-01, 4.21626717e-02, 2.66063493e-02, 6.22149445e-02,
          2.95389771e-01, 6.45647645e-02, 1.50910551e-02, 3.05840876e-02,
          1.58841193e-01, 2.95389771e-01, 5.60114346e-02, 9.49933231e-02,
          1.46562114e-01, 2.95389771e-01, 1.39545187e-01, 9.89845246e-02,
          1.32534146e-01, 2.42626503e-01, 1.19593032e-01, 5.66916307e-03,
          1.55361861e-01, 1.33083448e-01, 3.13718170e-01, 1.63234398e-01,
          3.13718170e-01, 1.23445213e-01, 1.45702675e-01, 6.40461827e-03,
          1.81648396e-02, 4.14917469e-02, 5.64371534e-02, 1.69824064e-01,
          1.67538419e-01, 1.85044006e-01, 1.16435409e-01, 3.12500261e-02,
          1.17141917e-01, 4.03901041e-02, 1.27163827e-01, 1.71642795e-01,
          3.13718170e-01, 2.06308633e-01, 1.80475995e-01, 2.62306571e-01,
          1.21562399e-01, 6.29905984e-02, 1.40029922e-01, 2.07260951e-01,
          1.51276797e-01, 3.13718170e-01, 1.35672197e-01, 1.38538077e-01,
          1.45963684e-01, 7.00338557e-02, 1.54616283e-02, 3.29970270e-02,
          2.85762195e-02, 6.73486665e-02, 1.31424785e-01, 2.45210975e-01,
          2.61704475e-01, 1.93513975e-01, 1.03093289e-01, 7.39721954e-03,
          1.11443363e-02, 4.00203094e-03, 3.26137170e-02, 1.86167464e-01,
          1.35819376e-01, 1.44922912e-01, 1.08584791e-01, 8.18218067e-02,
          1.13888673e-01, 2.12951884e-01, 2.11430058e-01, 1.87384486e-01,
          2.54854053e-01, 2.03464791e-01, 2.61704475e-01, 2.61704475e-01,
          2.27213129e-01, 3.90095040e-02, 6.67964518e-02, 4.44271006e-02,
          8.81695673e-02, 2.61704475e-01, 2.23280132e-01, 2.12021977e-01,
          2.61704475e-01, 1.49271578e-01, 0., 0., 0., 1.66252237e-02,
          5.13122261e-01, 1.56704783e-01, 1.25610754e-01, 1.10156827e-01,
          4.32727039e-02, 0., 0., 0., 0., 0., 0., 0., 0., 0.,
          1.27028553e-02, 2.00542249e-03, 3.10413279e-02, 5.57480194e-02,
          6.18221462e-01, 3.54796439e-01, 2.39736408e-01, 3.19584101e-01,
          6.31864667e-02, 0., 0., 0., 0., 0., 0., 0., 0., 0., 0., 0., 0.,
          0., 0., 0., 0., 0., 0., 0., 0., 0., 0., 0., 0., 0., 0., 0., 0.,
          0., 0., 0., 0., 0., 0., 0., 0., 0., 0., 0., 0., 0., 0., 0., 0.,
          0., 0., 0., 0., 0., 0., 0., 0., 0., 0., 0., 0., 0., 0., 0., 0.,
          0., 0., 0., 0., 0., 0., 0., 0., 0., 0., 0., 0., 0., 0., 0., 0.,
          0., 0., 0., 0., 0., 0., 0., 0., 0., 0., 0., 0., 0., 0., 0., 0.,
          0., 0., 0., 0., 0., 0., 0., 0., 0., 0., 0., 0., 0., 0., 0., 0.,
          0., 0., 0., 0., 0., 0., 0., 0., 0., 0., 0., 0., 0., 0., 0., 0.,
          0., 0., 0., 0., 0., 0., 0., 0., 0., 0., 0., 0., 0., 0., 0., 0.,
          0., 0., 0., 0., 0., 0., 0., 0., 0., 0., 0., 0., 0., 0., 0., 0.,
          0., 0., 0., 0., 0., 0., 2.63757497e-01, 3.03567588e-01,
          2.59317040e-01, 1.70427188e-01, 3.92392099e-01, 7.30290115e-02,
          1.68475479e-01, 2.75618047e-01, 1.88601613e-01, 0., 0., 0., 0.,
          0., 0., 0., 0., 0., 1.51163951e-01, 2.19916493e-01,
          1.79210439e-01, 2.33379379e-01, 3.92392099e-01, 1.39076009e-01,
          1.30350068e-01, 2.25951120e-01, 1.99219406e-01, 1.20133899e-01,
          1.08718716e-01, 7.25772604e-02, 6.54109344e-02, 1.99348062e-01,
          8.28778148e-02, 8.36289749e-02, 1.12089232e-01, 1.30819187e-01,
          1.30344167e-01, 1.28206000e-01, 6.87875226e-02, 1.22047350e-01,
          3.11567992e-01, 3.11567992e-01, 1.52320534e-01, 1.74207166e-01,
          1.68162927e-01, 1.20721750e-01, 1.21390834e-01, 9.14844945e-02,
          1.04873806e-01, 2.52952129e-01, 7.44725019e-02, 6.76943213e-02,
          1.27188399e-01, 1.28357112e-01, 1.54802546e-01, 1.60352275e-01,
          1.61569074e-01, 3.03974271e-01, 3.11567992e-01, 2.29990825e-01,
          9.48905051e-02, 2.16840386e-01, 1.38414010e-01, 6.78085983e-02,
          8.02892447e-02, 4.85545658e-02, 1.44709632e-01, 3.57367039e-01,
          3.32863212e-01, 9.86140519e-02, 8.22512954e-02, 4.69935648e-02,
          8.25630501e-02, 6.00600056e-02, 4.04068343e-02, 9.47934762e-02,
          3.56462687e-01, 9.94457752e-02, 2.96394341e-02, 3.30779850e-02,
          1.50004104e-02, 4.21405621e-02, 5.58386855e-02, 1.10641263e-01,
          3.27641964e-01, 3.57367039e-01, 2.88259149e-01, 5.99811599e-02,
          1.46405295e-01, 3.37195545e-02, 4.41620275e-02, 4.09381799e-02,
          4.57250737e-02, 9.16801244e-02, 3.38084698e-01, 1.97726101e-01,
          7.50665441e-02, 9.66297910e-02, 2.70987507e-02, 1.60608113e-01,
          7.18639567e-02, 3.71878892e-02, 6.52697831e-02, 3.15302819e-01,
          9.48169827e-02, 2.20916513e-02, 4.26282063e-02, 1.18664175e-01,
          1.93645597e-01, 2.80994549e-02, 1.45970052e-02, 7.98654035e-02,
          3.15302819e-01, 2.49474749e-01, 3.58809829e-02, 2.48669311e-02,
          3.15302819e-01, 1.25910684e-01, 5.81151843e-02, 9.61807445e-02,
          7.77343810e-02, 2.50376672e-01, 1.62838519e-01, 1.00141868e-01,
          8.83607194e-02, 9.92498919e-02, 2.32979655e-01, 7.91947916e-02,
          1.43348828e-01, 1.20026954e-01, 3.15302819e-01, 2.65469640e-01,
          8.29647779e-02, 6.69929385e-02, 3.15302819e-01, 9.94310230e-02,
          1.43720414e-02, 9.40269232e-03, 4.96279001e-02, 2.69835055e-01,
          1.15637682e-01, 2.02158839e-02, 1.04155811e-02, 2.01780558e-01,
          2.54486263e-01, 6.36557192e-02, 6.42834157e-02, 1.12520911e-01,
          2.85865963e-01, 1.03941105e-01, 1.54212061e-02, 2.00867541e-02,
          2.79222161e-01, 9.98661369e-02, 1.40636325e-01, 2.02337354e-01,
          8.43561143e-02, 2.85865963e-01, 1.36718124e-01, 1.75701864e-02,
          2.76398547e-02, 1.98191330e-01, 2.23284155e-01, 2.85865963e-01,
          2.85865963e-01, 1.23981841e-01, 2.85865963e-01, 1.31433189e-01,
          1.26228901e-02, 2.80183051e-02, 2.30584115e-01, 2.02463850e-01,
          2.30511531e-01, 2.50245541e-01, 1.65577307e-01, 2.52242893e-01,
          1.13549478e-01, 2.36871950e-02, 6.09776154e-02, 2.03196362e-01,
          1.45824865e-01, 2.64439911e-01, 2.64439911e-01, 1.65311188e-01,
          1.59563214e-01, 1.57637492e-01, 9.82961729e-02, 9.47319642e-02,
          1.05302624e-01, 1.84798166e-01, 2.64439911e-01, 2.64439911e-01,
          1.01899572e-01, 2.22316951e-01, 8.42249319e-02, 1.11048911e-02,
          6.36903569e-02, 2.05768570e-01, 8.25526714e-02, 1.63644612e-01,
          2.48918414e-01, 9.40675139e-02, 1.07415937e-01, 5.96552528e-02,
          2.51237769e-02, 4.62890528e-02, 1.13642350e-01, 2.00600058e-01,
          1.72664329e-01, 2.72172898e-01, 2.43680820e-01, 2.72172898e-01,
          2.06520945e-01, 1.37677372e-01, 1.49368837e-01, 1.78582519e-01,
          1.12745680e-01, 1.15334429e-01, 1.32987708e-01, 1.84518799e-01,
          2.72172898e-01, 1.99760497e-01, 5.37419952e-02, 1.28864884e-01,
          1.36484444e-01, 1.13235638e-01, 7.52655491e-02, 1.18720129e-01,
          1.28067672e-01, 2.38229305e-01, 1.15345925e-01, 5.65390699e-02,
          4.28276695e-02, 1.21059537e-01, 1.87508151e-01, 5.99777587e-02,
          1.58508122e-01, 1.77907616e-01, 2.72172898e-01, 1.84730336e-01,
          5.53023219e-02, 1.04874089e-01, 1.32326394e-01, 1.58857480e-01,
          7.06414953e-02, 5.06151468e-02, 1.17842011e-01, 3.05020660e-01,
          8.38442668e-02, 2.85948534e-02, 5.23601957e-02, 1.27375603e-01,
          1.93992615e-01, 7.25694895e-02, 2.91032027e-02, 1.47888035e-01,
          3.05020660e-01, 1.35935649e-01, 5.73299192e-02, 6.34111390e-02,
          1.54431105e-01, 2.44386300e-01, 7.49056712e-02, 1.09800242e-01,
          2.12669730e-01, 3.05020660e-01, 1.27803579e-01, 4.99126948e-02,
          5.31491674e-02, 1.51959270e-01, 2.71274567e-01, 2.06707090e-01,
          5.27025200e-02, 2.60441989e-01, 3.05020660e-01, 1.97258472e-01,
          8.55300277e-02, 4.74316552e-02, 1.82477772e-01, 4.17990908e-02,
          4.09990251e-02, 4.52741012e-02, 1.18464679e-01, 3.44464928e-01,
          1.64981976e-01, 7.18099549e-02, 8.15851539e-02, 3.44773307e-02,
          6.58584684e-02, 1.24032609e-01, 1.63543418e-01, 1.14100382e-01,
          3.44464928e-01, 1.11266389e-01, 2.02851743e-01, 1.03469774e-01,
          4.95619625e-02, 8.69287699e-02, 2.32981339e-01, 5.16910180e-02,
          1.68962583e-01, 3.44464928e-01, 1.89720646e-01, 8.97719190e-02,
          3.33945155e-02, 4.18704599e-02, 7.11082742e-02, 1.04502089e-01,
          9.97334793e-02, 1.16002180e-01, 3.44464928e-01, 1.84037134e-01,
          2.76304156e-01, 1.93906903e-01, 9.40802917e-02, 1.03855081e-01,
          1.86179012e-01, 1.24315321e-01, 1.08495735e-01, 2.44381070e-01,
          1.03036240e-01, 2.06035256e-01, 1.81069195e-01, 1.09536983e-01,
          5.30697741e-02, 1.10833190e-01, 3.36146951e-02, 6.36439174e-02,
          2.67032027e-01, 9.86579955e-02, 8.49483609e-02, 1.42508000e-01,
          5.32583222e-02, 1.83168277e-01, 2.13357314e-01, 7.41260722e-02,
          1.75816789e-01, 2.67032027e-01, 1.75727293e-01, 2.61484355e-01,
          2.40215629e-01, 2.40158424e-01, 1.44084305e-01, 2.67032027e-01,
          2.02729218e-02, 1.48608878e-01, 2.67032027e-01, 9.00535211e-02,
          8.44397247e-02, 1.17592983e-01, 1.38015762e-01, 4.55003083e-02,
          9.64508355e-02, 2.16915198e-02, 3.90522182e-02, 5.84015727e-01,
          1.58442423e-01, 8.45358968e-02, 1.65801883e-01, 2.00664625e-02,
          0., 0., 0., 0., 0., 0., 0., 0., 0., 1.17446914e-01,
          4.05701935e-01, 9.77423415e-03, 1.03395849e-01, 5.84015727e-01,
          1.16514824e-01, 9.03465450e-02, 1.43255278e-01, 8.41039792e-02,
          0., 0., 0., 0., 0., 0., 0., 0., 0., 0., 0., 0., 0., 0., 0., 0.,
          0., 0., 0., 0., 0., 0., 0., 0., 0., 0., 0., 0., 0., 0., 0., 0.,
          0., 0., 0., 0., 0., 0., 0., 0., 0., 0., 0., 0., 0., 0., 0., 0.,
          0., 0., 0., 0., 0., 0., 0., 0., 0., 0., 0., 0., 0., 0., 0., 0.,
          0., 0., 0., 0., 0., 0., 0., 0., 0., 0., 0., 0., 0., 0., 0., 0.,
          0., 0., 0., 0., 0., 0., 0., 0., 0., 0., 0., 0., 0., 0., 0., 0.,
          0., 0., 0., 0., 0., 0., 0., 0., 0., 0., 0., 0., 0., 0., 0., 0.,
          0., 0., 0., 0., 0., 0., 0., 0., 0., 0., 0., 0., 0., 0., 0., 0.,
          0., 0., 0., 0., 0., 0., 0., 0., 0., 0., 0., 0., 0., 0., 0., 0.,
          0., 0., 0., 0., 0., 0., 0., 0., 0., 0., 0., 0., 0., 0., 0., 0.,
          0., 0., 1.23446897e-01, 6.38075098e-02, 1.70016587e-01,
          2.07901537e-01, 5.80228448e-01, 2.64028668e-01, 6.60529584e-02,
          7.69473538e-02, 1.32773742e-01, 0., 0., 0., 0., 0., 0., 0., 0.,
          0., 6.33605421e-02, 4.68490273e-02, 1.18390717e-01,
          2.59287894e-01, 5.80228448e-01, 2.02156246e-01, 2.57979203e-02,
          2.62764208e-02, 4.61946651e-02, 1.22531809e-01, 7.36430362e-02,
          8.17569271e-02, 9.51440334e-02, 2.55890846e-01, 1.15956292e-01,
          4.29888740e-02, 6.36904240e-02, 7.98157528e-02, 1.79022267e-01,
          1.26710966e-01, 1.89198151e-01, 2.77276725e-01, 2.77276725e-01,
          2.77276725e-01, 1.09145299e-01, 2.77276725e-01, 9.15707052e-02,
          5.04768305e-02, 2.37981714e-02, 3.41135673e-02, 6.39285967e-02,
          2.77276725e-01, 7.76545480e-02, 2.87814140e-02, 2.58476585e-02,
          4.51959781e-02, 7.27367550e-02, 2.76548173e-02, 7.30432943e-02,
          2.56169617e-01, 2.77276725e-01, 2.25211442e-01, 2.77276725e-01,
          2.77276725e-01, 7.02039897e-02, 2.93343104e-02, 3.87768410e-02,
          9.47444886e-02, 2.62279183e-01, 2.62279183e-01, 1.95669010e-01,
          9.33044329e-02, 2.62279183e-01, 2.23894343e-02, 2.08263565e-02,
          4.06844132e-02, 4.09053415e-02, 7.30667934e-02, 2.62279183e-01,
          1.55211344e-01, 8.89631733e-02, 1.05717592e-01, 5.89102358e-02,
          1.53493648e-02, 1.46845886e-02, 8.60092491e-02, 2.62279183e-01,
          2.62279183e-01, 2.23867118e-01, 2.62279183e-01, 2.62279183e-01,
          1.72427706e-02, 1.04299702e-01, 3.75395603e-02, 6.73806295e-02,
          1.35785952e-01, 2.62279183e-01, 2.23095253e-01, 2.60312706e-01,
          2.03103647e-01, 1.06608741e-01, 8.75763744e-02, 5.04571013e-02,
          8.90882313e-02, 2.17566714e-02, 2.27439895e-01, 7.58932978e-02,
          8.08535963e-02, 5.63088357e-02, 1.60341352e-01, 1.42846450e-01,
          1.23126939e-01, 1.91373691e-01, 5.37374318e-02, 2.51927763e-01,
          5.86042143e-02, 1.01568349e-01, 5.88223450e-02, 1.95988312e-01,
          2.53309637e-01, 1.09265156e-01, 1.67957857e-01, 4.93985340e-02,
          2.83451289e-01, 1.29084662e-01, 1.18871711e-01, 9.47434008e-02,
          2.83451289e-01, 2.24968657e-01, 2.83451289e-01, 2.83451289e-01,
          7.89512694e-02, 2.83451289e-01, 7.45138600e-02, 9.88051221e-02,
          7.52045140e-02, 2.55747795e-01, 8.70304555e-02, 2.80520976e-01,
          3.65638971e-01, 1.00648500e-01, 1.38767272e-01, 7.32257590e-02,
          3.12401112e-02, 3.54754031e-02, 5.68972491e-02, 6.42828494e-02,
          3.65638971e-01, 3.65638971e-01, 7.02700764e-02, 8.32903683e-02,
          4.34385054e-02, 7.52157206e-03, 1.35152126e-02, 2.87997704e-02,
          7.96250775e-02, 3.44883323e-01, 3.65638971e-01, 8.28721672e-02,
          9.28073451e-02, 3.54546085e-02, 2.05566864e-02, 2.51528732e-02,
          3.53414938e-02, 6.11168779e-02, 1.72316715e-01, 3.65638971e-01,
          3.86326052e-02, 4.61914279e-02, 1.90690700e-02, 7.53464457e-03,
          9.87438951e-03, 2.32144222e-02, 1.13943309e-01, 5.49092114e-01,
          5.49092114e-01, 5.25056794e-02, 1.83913156e-01, 7.17506632e-02,
          7.60200480e-03, 2.91323252e-02, 1.86822355e-01, 5.66551909e-02,
          1.02028750e-01, 1.94697931e-01, 4.29529175e-02, 8.88698921e-02,
          1.63927749e-02, 7.61969527e-03, 1.72018353e-02, 1.35338232e-01,
          1.27614722e-01, 1.21180110e-01, 3.63319188e-01, 1.78373475e-02,
          1.63757429e-01, 6.45025969e-02, 6.29297271e-02, 3.43968603e-03,
          1.35067880e-01, 2.98328456e-02, 6.09311368e-03, 7.24304235e-03,
          4.34117205e-03, 3.06493044e-02, 1.76028479e-02, 3.43376957e-02,
          4.07609437e-03, 2.92805601e-02, 8.65566656e-02, 1.43226488e-02,
          2.92934049e-02, 5.14521226e-02, 1.38524219e-01, 3.81409936e-02,
          2.51702555e-02, 1.77405309e-02, 9.37340930e-02, 3.84926170e-01,
          1.77005436e-02, 1.67225391e-01, 1.36911660e-01, 3.84926170e-01,
          1.69501647e-01, 4.84727956e-02, 6.76516220e-02, 2.10311979e-01,
          1.09335683e-01, 2.39341194e-03, 2.89148255e-03, 1.30130732e-02,
          1.94080591e-01, 8.57654843e-04, 6.30816119e-03, 6.97214762e-03,
          8.25398788e-02, 3.84926170e-01, 5.11072949e-03, 6.58178655e-03,
          3.59690413e-02, 3.84926170e-01, 1.61798596e-01, 1.58083364e-02,
          4.82032038e-02, 3.84926170e-01, 1.86069638e-01, 2.21460015e-02,
          6.30623624e-02, 7.90378302e-02, 2.26754054e-01, 9.48239490e-02,
